/*
 * Copyright (c) 2026 EdgeImpulse Inc.
 *
 * Generated by Edge Impulse and licensed under the applicable Edge Impulse
 * Terms of Service. Community and Professional Terms of Service
 * (https://edgeimpulse.com/legal/terms-of-service) or Enterprise Terms of
 * Service (https://edgeimpulse.com/legal/enterprise-terms-of-service),
 * according to your product plan subscription (the “License”).
 *
 * This software, documentation and other associated files (collectively referred
 * to as the “Software”) is a single SDK variation generated by the Edge Impulse
 * platform and requires an active paid Edge Impulse subscription to use this
 * Software for any purpose.
 *
 * You may NOT use this Software unless you have an active Edge Impulse subscription
 * that meets the eligibility requirements for the applicable License, subject to
 * your full and continued compliance with the terms and conditions of the License,
 * including without limitation any usage restrictions under the applicable License.
 *
 * If you do not have an active Edge Impulse product plan subscription, or if use
 * of this Software exceeds the usage limitations of your Edge Impulse product plan
 * subscription, you are not permitted to use this Software and must immediately
 * delete and erase all copies of this Software within your control or possession.
 * Edge Impulse reserves all rights and remedies available to enforce its rights.
 *
 * Unless required by applicable law or agreed to in writing, the Software is
 * distributed on an "AS IS" BASIS, WITHOUT WARRANTIES OR CONDITIONS OF ANY KIND,
 * either express or implied. See the License for the specific language governing
 * permissions, disclaimers and limitations under the License.
 */
// Generated on: 05.06.2026 11:17:02

#include <stdio.h>
#include <stdlib.h>
#include "edge-impulse-sdk/tensorflow/lite/c/builtin_op_data.h"
#include "edge-impulse-sdk/tensorflow/lite/c/common.h"
#include "edge-impulse-sdk/tensorflow/lite/micro/micro_mutable_op_resolver.h"
#include "edge-impulse-sdk/porting/ei_classifier_porting.h"

#if EI_CLASSIFIER_PRINT_STATE
#if defined(__cplusplus) && EI_C_LINKAGE == 1
extern "C" {
    extern void ei_printf(const char *format, ...);
}
#else
extern void ei_printf(const char *format, ...);
#endif
#endif

#define STRINGIZE(x) #x
#define STRINGIZE_VALUE_OF(x) STRINGIZE(x)

#if defined (__GNUC__)  /* GNU compiler */
#define ALIGN(X) __attribute__((aligned(X)))
#define DEFINE_SECTION(x) __attribute__((section(x)))
#elif defined (_MSC_VER)
#define ALIGN(X) __declspec(align(X))
#elif defined (__TASKING__) /* TASKING Compiler */
#define ALIGN(X) __align(X)
#define DEFINE_SECTION(x) __attribute__((section(x)))
#elif defined (__ARMCC_VERSION) /* Arm Compiler */
#define ALIGN(X) __ALIGNED(x)
#define DEFINE_SECTION(x) __attribute__((section(x)))
#elif defined (__ICCARM__) /* IAR Compiler */
#define ALIGN(x) __attribute__((aligned(x)))
#define DEFINE_SECTION(x) __attribute__((section(x)))
#elif defined (__clang__) /* LLVM/Clang Compiler */
#define ALIGN(X) __ALIGNED(x)
#define DEFINE_SECTION(x) __attribute__((section(x)))
#endif

#if defined(EI_MODEL_SECTION) && (defined(__GNUC__) || defined(__clang__))
#define MODEL_SECTION(X) __attribute__((section(STRINGIZE_VALUE_OF(X))))
#else
#define MODEL_SECTION(X)
#endif

#ifndef EI_MAX_SCRATCH_BUFFER_COUNT
#ifndef CONFIG_IDF_TARGET_ESP32S3
#define EI_MAX_SCRATCH_BUFFER_COUNT 14
#else
#define EI_MAX_SCRATCH_BUFFER_COUNT 28
#endif // CONFIG_IDF_TARGET_ESP32S3
#endif // EI_MAX_SCRATCH_BUFFER_COUNT

#ifndef EI_MAX_OVERFLOW_BUFFER_COUNT
#define EI_MAX_OVERFLOW_BUFFER_COUNT 10
#endif // EI_MAX_OVERFLOW_BUFFER_COUNT

using namespace tflite;
using namespace tflite::ops;
using namespace tflite::ops::micro;

namespace {

#if defined(EI_CLASSIFIER_ALLOCATION_STATIC_HIMAX) || defined(EI_CLASSIFIER_ALLOCATION_STATIC_HIMAX_GNU)
constexpr int kTensorArenaSize = 154896;
#else
constexpr int kTensorArenaSize = 153872;
#endif

#if defined(EI_CLASSIFIER_ALLOCATION_STATIC)
#if defined (EI_TENSOR_ARENA_LOCATION)
uint8_t tensor_arena[kTensorArenaSize] ALIGN(16) DEFINE_SECTION(STRINGIZE_VALUE_OF(EI_TENSOR_ARENA_LOCATION));
#else
uint8_t tensor_arena[kTensorArenaSize] ALIGN(16);
#endif
#elif defined(EI_CLASSIFIER_ALLOCATION_STATIC_HIMAX)
#pragma Bss(".tensor_arena")
uint8_t tensor_arena[kTensorArenaSize] ALIGN(16);
#pragma Bss()
#elif defined(EI_CLASSIFIER_ALLOCATION_STATIC_HIMAX_GNU)
uint8_t tensor_arena[kTensorArenaSize] ALIGN(16) __attribute__((section(".tensor_arena")));
#else
#define EI_CLASSIFIER_ALLOCATION_HEAP 1
uint8_t* tensor_arena = NULL;
#endif

static uint8_t* tensor_boundary;
static uint8_t* current_location;

template <int SZ, class T> struct TfArray {
  int sz; T elem[SZ];
};

enum used_operators_e {
  OP_CONV_2D, OP_DEPTHWISE_CONV_2D, OP_ADD, OP_SOFTMAX,  OP_LAST
};

struct TensorInfo_t { // subset of TfLiteTensor used for initialization from constant memory
  TfLiteAllocationType allocation_type;
  TfLiteType type;
  void* data;
  TfLiteIntArray* dims;
  size_t bytes;
  TfLiteQuantization quantization;
};

typedef struct {
  TfLiteTensor tensor;
  int16_t index;
} TfLiteTensorWithIndex;

typedef struct {
  TfLiteEvalTensor tensor;
  int16_t index;
} TfLiteEvalTensorWithIndex;

TfLiteContext ctx{};
static const int MAX_TFL_TENSOR_COUNT = 4;
static TfLiteTensorWithIndex tflTensors[MAX_TFL_TENSOR_COUNT];
static const int MAX_TFL_EVAL_COUNT = 4;
static TfLiteEvalTensorWithIndex tflEvalTensors[MAX_TFL_EVAL_COUNT];
TfLiteRegistration registrations[OP_LAST];

namespace g0 {
const TfArray<4, int> tensor_dimension0 = { 4, { 1,96,96,1 } };
const TfArray<1, float> quant0_scale = { 1, { 0.0039215688593685627, } };
const TfArray<1, int> quant0_zero = { 1, { -128 } };
const TfLiteAffineQuantization quant0 = { (TfLiteFloatArray*)&quant0_scale, (TfLiteIntArray*)&quant0_zero, 0 };
const MODEL_SECTION(EI_MODEL_SECTION) ALIGN(16) int32_t tensor_data1[5] = { 19290, -40075, -45553, -32667, -41605, };
const TfArray<1, int> tensor_dimension1 = { 1, { 5 } };
const TfArray<5, float> quant1_scale = { 5, { 0.00020368746481835842, 0.00014565764286089689, 0.00012137014709878713, 0.00013129514991305768, 0.00016015650180634111, } };
const TfArray<5, int> quant1_zero = { 5, { 0,0,0,0,0 } };
const TfLiteAffineQuantization quant1 = { (TfLiteFloatArray*)&quant1_scale, (TfLiteIntArray*)&quant1_zero, 0 };
const MODEL_SECTION(EI_MODEL_SECTION) ALIGN(16) int8_t tensor_data2[5*1*1*32] = { 
  /* [0][0][][] */ 33,76,12,-11,-47,68,-17,21,37,3,2,-16,9,39,13,109,-5,-59,-87,-40,-16,13,-80,-74,-3,-44,55,-127,-33,35,4,24, 
  /* [1][0][][] */ 32,91,73,118,43,84,10,-31,-64,-42,60,9,-127,54,-103,11,8,31,-63,27,-64,78,68,-26,-3,66,22,80,35,-97,44,-95, 
  /* [2][0][][] */ -29,-66,-71,-65,-20,47,127,-59,78,117,-71,115,67,115,-121,-56,-14,11,112,1,-33,-106,89,-107,73,49,70,32,-112,-64,89,97, 
  /* [3][0][][] */ 72,-67,-12,-29,109,-42,-59,-86,39,-69,-58,-127,-23,-43,17,-57,-103,-60,-64,37,2,36,-29,26,48,109,7,-41,27,67,101,-91, 
  /* [4][0][][] */ -27,-62,70,-14,-2,38,-50,-69,67,76,72,-104,1,-66,68,0,61,-73,-52,79,2,-47,-9,89,-5,-46,-84,-59,-127,99,-2,-81, 
};
const TfArray<4, int> tensor_dimension2 = { 4, { 5,1,1,32 } };
const TfArray<5, float> quant2_scale = { 5, { 0.005602455697953701, 0.0040063364431262016, 0.0033383050467818975, 0.0036112938541918993, 0.0044051297008991241, } };
const TfLiteAffineQuantization quant2 = { (TfLiteFloatArray*)&quant2_scale, (TfLiteIntArray*)&g0::quant1_zero, 0 };
const MODEL_SECTION(EI_MODEL_SECTION) ALIGN(16) int32_t tensor_data3[32] = { 400, -268, 332, 243, 439, 141, 290, -381, 314, 252, -1, 693, 738, -81, 505, -127, -486, -302, -222, 163, -493, 821, -612, -398, 258, 323, 855, -341, 990, 536, -467, -169, };
const TfArray<1, int> tensor_dimension3 = { 1, { 32 } };
const TfArray<32, float> quant3_scale = { 32, { 4.5846958528272808e-05, 5.0200276746181771e-05, 4.9655081966193393e-05, 5.3579718951368704e-05, 4.5749296987196431e-05, 5.4312033171299845e-05, 4.7078588977456093e-05, 4.0848859498510137e-05, 4.4498316128738225e-05, 5.1970935601275414e-05, 5.4153548262547702e-05, 5.719421460526064e-05, 5.5265685659833252e-05, 5.0336286221863702e-05, 4.5008047891315073e-05, 4.2906209273496643e-05, 4.0896153223002329e-05, 5.5430358770536259e-05, 6.5443207859061658e-05, 4.9757512897485867e-05, 4.2901672713924199e-05, 4.5906868763267994e-05, 4.3489526433404535e-05, 4.8907222662819549e-05, 5.1577921112766489e-05, 5.0934329919982702e-05, 4.6083288907539099e-05, 5.650019011227414e-05, 5.8015597460325807e-05, 4.5421325921779498e-05, 4.2417694203322753e-05, 4.5190976379672065e-05, } };
const TfArray<32, int> quant3_zero = { 32, { 0,0,0,0,0,0,0,0,0,0,0,0,0,0,0,0,0,0,0,0,0,0,0,0,0,0,0,0,0,0,0,0 } };
const TfLiteAffineQuantization quant3 = { (TfLiteFloatArray*)&quant3_scale, (TfLiteIntArray*)&quant3_zero, 0 };
const MODEL_SECTION(EI_MODEL_SECTION) ALIGN(16) int8_t tensor_data4[32*1*1*96] = { 
  /* [0][0][][] */ -25,-38,104,7,87,-13,-82,-116,93,-100,-91,-4,62,24,-35,55,-52,-29,-77,-53,-38,-92,22,102,-82,2,93,-40,97,-2,-20,-75,78,-57,-89,57,-89,-84,-93,33,29,-80,-76,103,69,-76,99,1,-7,-57,-55,78,-64,-47,-85,110,15,60,127,-93,-45,79,-43,44,1,20,44,85,42,78,99,-125,98,-114,48,74,-83,4,-31,48,59,22,101,-58,-45,-31,-67,83,24,111,1,-113,1,58,24,21, 
  /* [1][0][][] */ -61,18,-75,-16,-32,67,37,-7,55,-104,-101,71,43,-36,9,47,96,-35,38,107,-44,-25,20,16,37,11,-41,81,7,7,87,-63,41,81,-21,18,39,43,-16,-65,-54,-1,-11,-93,-35,21,-37,-55,29,-91,127,51,1,70,-63,-56,26,80,39,59,-55,92,-36,-68,-43,20,66,31,81,2,1,8,-108,61,-52,49,59,-14,-42,51,-79,62,-28,-77,12,106,-72,-52,60,79,73,9,58,70,40,-19, 
  /* [2][0][][] */ 64,34,-48,74,-21,-39,79,102,-48,45,-9,79,86,1,74,-95,-46,-51,41,41,-57,-14,112,-6,-12,63,89,15,-60,88,89,84,-76,-2,-76,-101,-113,68,116,-77,-63,-76,35,-23,-115,127,-4,-76,-10,29,102,-65,-26,7,24,5,-41,84,-64,21,-14,42,-5,65,92,59,38,74,-69,42,28,-40,37,-91,33,43,-56,-6,36,12,40,-108,11,6,3,-78,5,-55,100,105,-22,41,-58,-83,-19,-94, 
  /* [3][0][][] */ 79,-5,24,-14,-76,41,-93,27,72,-11,66,-24,83,92,76,4,110,70,-13,28,119,-60,-36,-127,-2,-97,-52,72,52,-76,67,15,-65,-27,-1,-21,-110,-12,44,19,-45,-102,-55,-18,53,52,-32,-62,32,-51,52,-12,79,-2,75,-77,-99,-90,-99,-36,-58,11,0,53,53,-25,-44,-38,-12,-50,21,93,12,-91,46,-23,25,105,104,-44,-67,-116,63,89,28,51,-18,-92,-60,46,9,-101,57,-90,-46,5, 
  /* [4][0][][] */ 56,114,11,45,-25,-23,30,-2,92,60,10,56,43,-18,-4,-47,-17,6,-41,9,127,-77,101,38,7,-22,87,-39,-64,33,-62,-42,73,112,17,-105,-20,-10,-107,56,-99,-47,-50,-67,61,124,42,75,-30,-35,-76,-65,-69,47,-78,34,18,-82,46,33,37,-64,-36,-62,-32,67,-32,-33,19,-96,-70,-86,-40,9,110,49,79,-55,20,-31,21,-38,-66,-107,17,76,103,0,-103,-68,52,45,7,85,-72,-15, 
  /* [5][0][][] */ 85,-85,53,73,24,-92,18,51,99,-106,0,-64,15,81,40,22,66,35,-39,90,45,51,13,-45,-76,-51,-24,-87,51,25,8,-79,-35,0,-44,18,-127,-19,46,-3,-67,-51,54,61,-50,25,29,-49,-116,95,39,36,28,-6,26,-22,87,39,-58,-38,33,-66,47,-59,-23,73,-6,17,69,11,88,-44,-44,66,-29,-41,-9,-29,26,59,85,19,41,100,-71,74,-1,38,62,-71,94,68,-16,15,74,-70, 
  /* [6][0][][] */ 19,-54,115,87,-80,-55,-3,76,-6,-54,-7,-61,87,62,127,-111,59,5,25,113,-52,-84,96,45,-63,-61,-3,-90,-8,-116,25,-62,-67,-115,-23,-77,-15,57,-92,99,44,39,42,-29,-90,94,-86,-36,-61,37,-18,-82,50,-90,99,-8,9,11,-73,84,-51,12,70,-62,-45,27,113,-49,90,22,-82,10,40,-36,-92,-35,-86,-100,-46,-14,44,-8,59,-51,-85,-80,-42,-51,79,83,97,-1,-26,-39,94,-6, 
  /* [7][0][][] */ 116,62,-51,-54,-78,114,-24,-15,104,1,-115,6,48,-103,36,69,60,14,-20,113,42,24,-18,87,-81,103,31,51,-84,105,-29,31,20,19,61,97,-116,81,-21,-37,105,-82,74,62,44,-18,102,-126,99,-73,-127,-78,-37,96,7,23,121,-103,-8,-76,-9,-13,80,-125,-82,-67,63,20,-124,6,57,78,82,11,52,61,-81,72,-120,36,84,-46,-33,-83,81,33,-126,99,76,-1,86,58,-68,-50,-22,-78, 
  /* [8][0][][] */ 13,40,-31,-75,57,32,-71,2,7,46,49,95,11,-34,-68,-64,-81,89,-51,25,36,-8,84,105,-127,99,46,83,-61,31,-75,114,100,-24,57,6,111,15,-8,67,89,103,-101,-103,-5,-29,-19,100,-37,-77,-60,-4,-54,-12,-19,-96,46,110,-81,106,107,49,20,111,-24,-36,-8,100,-71,70,42,12,82,93,17,15,-37,84,81,82,44,88,-114,-69,32,40,78,-41,48,-28,-80,110,-65,-96,-35,74, 
  /* [9][0][][] */ 5,13,108,55,70,-84,-47,-60,30,54,2,85,-8,-58,-69,-21,6,27,-65,-46,13,101,-100,-64,58,3,-39,24,-1,-57,-77,92,71,11,39,-5,-81,29,-13,-27,65,-49,57,-69,47,-12,-72,13,-13,4,-66,-50,76,-68,-49,98,74,-26,-13,21,-88,100,62,-56,-83,11,102,44,-17,107,99,-56,25,91,-84,-79,-78,-113,-35,86,42,33,94,25,-38,-100,35,0,98,17,-26,127,106,8,67,-13, 
  /* [10][0][][] */ -40,60,77,-53,-7,94,86,44,52,4,25,-36,81,63,-19,7,-10,60,-56,-47,6,18,45,-50,28,39,-97,-92,-37,75,-63,-57,65,85,96,51,-52,-6,-10,15,7,89,-67,-33,-96,-37,4,-66,-58,3,56,17,58,1,-44,-34,-78,7,15,-31,2,70,111,39,102,-51,-72,-19,33,-18,-73,-31,72,33,-67,101,-24,72,73,12,66,-14,69,127,-86,57,82,-34,36,12,-10,-28,-53,-47,-9,-75, 
  /* [11][0][][] */ 93,15,8,96,99,28,47,43,94,86,-41,127,12,-49,40,-32,-25,-56,69,51,41,75,34,-63,-76,-59,-2,42,74,-15,8,-4,-46,-48,57,49,-42,77,-13,-13,-36,91,-36,14,-20,-21,-57,-49,116,96,88,30,-57,-37,23,39,-49,-20,-13,-46,-32,84,70,16,26,58,-22,33,82,65,-47,-37,40,102,-62,45,-42,25,-23,86,-62,-2,-37,-65,45,-37,20,28,-58,12,24,-69,-49,-7,-32,-10, 
  /* [12][0][][] */ 16,75,-15,26,67,1,-37,49,-75,69,-12,27,-21,28,61,-47,-73,-21,-21,-41,39,21,6,75,-56,-20,66,-55,96,18,-30,92,-44,-46,-10,32,9,-29,-1,42,97,40,-78,-26,-20,-88,-21,100,-25,-65,-65,66,37,23,-60,86,-6,-32,42,45,47,102,-10,48,82,33,-11,102,68,107,46,71,73,127,-8,2,-32,19,-101,-59,-21,103,46,-4,-32,24,39,105,-48,-84,94,42,100,14,34,95, 
  /* [13][0][][] */ 90,-66,80,95,61,85,54,44,72,-81,-1,-38,71,66,70,-51,-79,-72,-40,43,74,-10,97,-55,-34,36,2,-6,-60,-100,49,21,38,71,-7,42,-98,-9,14,56,-94,49,-27,-7,-40,34,-6,-9,55,100,-31,-106,-103,14,81,-67,-47,12,-33,-78,-1,82,-52,-4,-54,-74,-63,56,-24,7,87,-3,-96,49,-79,-38,-100,60,77,-47,43,-77,101,-19,-79,-77,72,127,-15,-40,-54,19,107,-37,75,6, 
  /* [14][0][][] */ -4,-82,119,72,78,-25,-23,-87,-42,-57,90,87,-6,-59,-77,-87,-66,-66,-2,12,-19,37,8,62,-115,-77,-28,46,-113,-89,-43,42,105,18,-29,9,74,105,44,-121,19,-119,45,97,57,-88,90,-99,41,41,96,39,104,-24,-13,14,-35,10,49,112,-30,-73,-26,61,-75,28,75,-90,-63,-96,-66,103,20,67,61,-63,64,-119,85,45,63,-14,-124,-16,-102,-91,-85,85,126,15,92,-11,79,127,-16,54, 
  /* [15][0][][] */ 18,-35,-31,79,99,-86,65,-104,47,1,-78,3,102,0,-92,-118,107,6,-95,32,44,16,65,108,89,74,33,89,42,56,69,-102,4,6,-62,3,-76,116,106,-75,26,117,-36,-33,18,-87,-42,-84,4,-80,27,55,-102,-99,-49,-10,94,49,-57,99,-62,-69,13,107,-30,93,-69,4,-58,4,59,-73,14,-15,51,-92,-12,105,95,71,-83,66,-96,71,-127,-21,-96,34,84,71,-112,-43,61,115,-93,117, 
  /* [16][0][][] */ -77,-15,103,-64,41,118,-61,56,35,43,-125,72,-24,-62,-57,-74,108,71,78,61,112,78,-58,45,-57,57,-91,57,-104,17,42,7,-118,77,58,59,-58,47,-46,-85,56,-59,75,82,43,89,106,-36,-62,-122,38,115,-51,109,66,34,35,92,54,-1,96,111,42,63,50,8,-33,93,56,104,-47,0,24,82,54,94,-31,127,-126,-31,7,-98,65,101,-2,90,94,4,79,10,-24,123,69,-29,-73,15, 
  /* [17][0][][] */ 27,-96,20,69,-42,-86,-58,-61,43,-61,62,66,70,41,-67,41,66,36,127,111,-52,-6,6,-47,31,49,-57,2,99,-31,-31,68,-33,-28,26,15,-51,92,-57,-13,-88,-44,11,-21,-3,24,57,-86,80,93,14,33,-20,44,84,-65,-92,76,-80,-94,56,-72,86,68,-52,-69,55,-92,-65,32,81,37,-1,-72,-62,60,79,-8,46,-57,6,-14,-21,-48,-98,67,55,10,9,78,-82,-98,13,87,49,5, 
  /* [18][0][][] */ -56,68,92,-8,-32,-72,-82,9,16,73,-103,20,-8,36,63,-76,32,-36,61,4,77,15,7,-68,-17,-58,-33,39,31,-32,-31,43,52,-43,-47,-50,-36,59,-34,67,-78,-14,-2,-37,-88,-6,-23,-25,-16,12,32,-12,-97,-94,17,80,-20,36,-19,-125,85,85,4,12,-63,-127,-12,22,64,4,-20,80,-81,18,-124,-95,15,17,-14,-33,-16,26,-6,-90,29,-54,49,63,-112,-80,-46,76,84,-32,57,30, 
  /* [19][0][][] */ 27,42,79,29,44,-68,74,105,118,-85,42,8,-64,43,-33,62,56,-87,127,36,9,82,-29,22,79,-77,45,-41,-97,-89,-46,43,77,-62,36,-7,20,-71,-32,-95,57,-97,-49,25,-58,49,81,-70,-115,38,-27,40,-16,2,13,3,16,95,17,-2,67,-41,94,50,-53,18,-27,-4,5,65,85,-28,-39,-110,-33,-73,-1,-104,43,112,64,-110,0,98,-60,-3,26,-26,90,26,-4,78,-30,90,84,-54, 
  /* [20][0][][] */ -19,65,64,87,-81,86,17,52,9,7,-95,34,-11,78,34,-81,-42,-33,-75,-38,16,-53,-85,-34,72,-77,-106,46,17,7,-44,103,103,36,-23,53,50,-41,-28,-86,-66,-38,-99,-103,-16,-73,-60,100,117,-127,-103,50,39,113,46,-4,92,71,90,84,105,-54,-75,-41,-31,-66,-57,9,-92,-85,-77,69,-66,-91,22,11,105,72,100,101,79,1,75,-16,51,109,-25,69,10,91,22,69,20,29,-13,-2, 
  /* [21][0][][] */ 124,83,75,-88,100,-54,91,-2,34,-56,-49,40,24,59,-38,-71,-61,-18,47,4,127,-43,89,-75,78,-63,0,79,31,15,11,3,9,34,-73,-95,119,92,-96,-20,-34,14,50,-2,-55,-46,-67,107,-36,-53,16,83,48,70,-66,48,-40,60,-31,127,76,-60,41,3,100,44,-35,-59,-80,-5,78,88,40,-40,81,81,-87,5,89,116,28,114,60,-52,39,-72,81,-87,-89,86,121,-115,-59,-83,88,-37, 
  /* [22][0][][] */ 21,-64,-83,-109,76,-65,95,69,-96,80,-85,-90,103,-124,-123,-94,64,78,-115,-74,84,-86,20,28,81,-12,-121,88,-78,-88,-76,-121,37,49,9,-4,-1,-22,-65,-121,6,-26,-14,82,48,-126,93,-28,-50,-94,-10,-31,-74,-104,-57,23,-24,-36,-33,-39,102,-88,-82,-127,-79,9,-123,-58,102,95,-36,-9,-76,5,53,-102,32,-46,57,83,95,-112,-70,-99,66,68,86,-30,-68,19,-77,52,10,18,-33,84, 
  /* [23][0][][] */ 60,-53,21,29,87,-122,-23,-84,83,-91,93,100,37,-95,16,-37,52,-19,-111,66,79,-81,101,5,-26,-36,86,43,30,12,39,-32,-13,48,5,19,99,-31,-125,-1,-121,-4,-12,-73,-39,-64,122,15,5,-107,-108,-43,75,-58,-72,89,-80,-8,102,70,-96,-73,-72,-58,6,58,-124,-96,41,-33,106,-71,12,-54,-22,-119,61,-35,99,114,-41,-55,-3,-127,95,-14,113,-33,-84,24,68,26,90,-41,-45,50, 
  /* [24][0][][] */ -69,-28,-79,-57,-78,-104,-63,-71,77,89,80,39,105,61,-24,-88,-69,41,33,-40,94,-56,-33,-28,56,-34,78,58,85,42,-4,-53,1,6,44,21,-29,-63,52,-13,-100,-77,96,15,37,-15,35,75,-109,-30,-42,14,67,51,56,-53,-17,65,37,13,97,-6,16,75,-80,87,-33,-77,-87,55,-35,-25,-27,52,90,80,68,-104,-73,-52,-58,-80,-49,-127,13,57,0,-74,26,-93,10,-70,-11,30,-72,34, 
  /* [25][0][][] */ -69,-34,-61,-13,73,-64,-90,25,69,-100,-21,22,72,11,-84,-10,-45,58,54,-92,79,79,7,-41,32,-58,-65,42,57,-81,25,101,82,-93,39,56,104,-54,-26,-7,-114,86,-76,14,107,56,56,49,-122,83,-106,0,44,-14,-53,20,-42,46,-74,78,127,37,48,33,4,72,-30,-9,-82,4,-5,-107,35,-100,71,14,78,61,35,35,51,43,-20,-4,-51,-33,-74,-79,-18,-36,94,14,-98,-19,1,-69, 
  /* [26][0][][] */ 51,-112,-10,6,-95,-5,3,3,-89,-98,107,65,-71,-22,23,6,120,32,-54,-39,34,88,115,-21,71,78,27,28,36,22,-87,-5,-25,-64,-71,-78,-59,102,-27,117,-101,104,79,13,-63,89,-46,117,72,44,14,90,29,-19,18,-83,100,56,71,-6,30,-91,79,5,127,-39,-27,55,-67,93,101,106,76,-68,-66,30,45,-104,-75,28,-10,78,98,-77,89,21,-20,43,-56,120,33,-13,-41,119,68,99, 
  /* [27][0][][] */ 17,-3,-49,-64,-120,-52,-59,-4,68,76,29,-33,-20,46,84,-26,97,-25,91,-39,-45,24,-6,-36,-60,28,-69,-33,59,14,-39,1,39,30,-60,-66,-110,-33,-77,82,-104,-24,46,-20,85,54,45,70,48,68,62,-53,-74,-127,7,-23,57,-1,-100,-56,-8,-39,0,22,36,-42,-71,46,53,49,-77,20,22,-22,-26,-58,24,-25,98,76,69,-23,124,-28,-77,-51,-22,48,-45,12,-28,-52,56,0,102,36, 
  /* [28][0][][] */ 89,25,63,32,-73,-51,-53,-68,14,-43,68,58,-36,-37,29,107,119,117,-1,110,13,26,-44,-41,-33,78,-6,-31,-33,-67,0,15,-80,15,66,60,68,-47,-29,73,61,50,-92,64,6,40,19,90,110,-5,-65,-13,-52,52,36,61,41,6,88,62,56,-30,-40,11,74,63,-4,69,-51,21,-52,-39,58,24,21,-65,-48,-11,-24,66,-44,-45,127,-50,69,-54,68,10,-98,-40,13,-84,-21,28,-38,-59, 
  /* [29][0][][] */ 57,66,74,-38,-67,30,-96,35,100,-6,-70,-77,115,-85,-41,-30,-119,106,3,-83,-77,-24,64,15,-35,27,-28,-7,-107,22,125,8,63,19,-71,-28,-3,85,12,92,81,115,-37,95,13,109,-37,-20,-28,-5,80,-73,85,-85,127,56,-54,66,-30,116,-112,106,-101,-30,-33,-40,63,99,107,-88,45,-48,122,64,73,30,125,-82,-21,47,14,-59,-26,-19,74,113,55,45,-14,101,74,100,-75,46,-24,62, 
  /* [30][0][][] */ 19,-65,-72,25,-102,19,-68,-14,110,-22,-5,-47,-111,7,53,7,-14,35,86,-113,33,-106,-121,10,-113,18,-73,116,-19,-110,-94,-2,-92,-78,-127,-62,15,-28,-8,24,90,-83,-17,96,98,-53,95,53,-71,64,15,-105,93,-52,-17,96,-85,-61,-84,-57,-109,-8,-78,-32,-113,-91,-100,82,-70,101,37,-41,-98,97,35,-95,-64,-72,-79,-70,19,14,-110,-23,-113,25,-117,102,-42,-119,67,50,-42,-9,4,-82, 
  /* [31][0][][] */ 78,-85,33,97,52,64,-55,-67,-30,-24,-66,-85,97,-122,-44,112,-41,-74,13,42,59,27,-34,104,28,-112,32,40,-79,-73,44,116,10,24,-93,-9,86,-36,-59,-98,68,-60,-43,36,5,-53,-46,16,97,26,89,-12,-110,-56,-83,16,-127,76,-11,118,-37,2,74,-74,65,111,-35,-67,75,-118,-123,11,-93,-47,6,7,-57,-56,47,80,-72,-42,37,67,48,86,-95,41,10,-56,-84,-50,5,110,-21,-31, 
};
const TfArray<4, int> tensor_dimension4 = { 4, { 32,1,1,96 } };
const TfArray<32, float> quant4_scale = { 32, { 0.0019484957447275519, 0.0021335117053240538, 0.002110340865328908, 0.0022771379444748163, 0.0019443450728431344, 0.0023082613479346037, 0.0020008399151265621, 0.0017360764322802424, 0.0018911784281954169, 0.0022087646648287773, 0.0023015257902443409, 0.0024307540152221918, 0.0023487915750592947, 0.0021392921917140484, 0.0019128419226035476, 0.0018235138850286603, 0.0017380864592269063, 0.0023557902313768864, 0.0027813364285975695, 0.002114694332703948, 0.0018233209848403931, 0.0019510418642312288, 0.0018483048770576715, 0.0020785569213330746, 0.0021920616272836924, 0.0021647089160978794, 0.0019585397094488144, 0.002401258097961545, 0.0024656627792865038, 0.00193040631711483, 0.0018027520272880793, 0.0019206164870411158, } };
const TfLiteAffineQuantization quant4 = { (TfLiteFloatArray*)&quant4_scale, (TfLiteIntArray*)&g0::quant3_zero, 0 };
const MODEL_SECTION(EI_MODEL_SECTION) ALIGN(16) int32_t tensor_data5[96] = { 1392, 66, 2772, 5150, 5964, -2103, 4993, -1183, -2768, -480, 4856, -2620, 4439, 6202, 1954, 2602, -577, -388, -2425, 4650, 2541, -715, 3400, -661, -1332, 3781, 1744, 1655, 7543, 2666, 4930, 1304, 1737, 4156, 5280, 4238, -298, 3001, 2627, -4066, 312, 1822, -244, 2178, -1239, 612, -2137, 870, -4339, 1849, 1933, -3977, 6100, -1303, 2320, 1772, 1099, 3195, -1134, -2517, 316, 1604, 480, 4615, 6565, 2856, 4181, 6571, 4610, -711, 4404, 5960, 4189, -1170, 6950, 7055, 1176, -3854, 597, 1310, 8389, 1724, -342, -2056, 1881, 617, 2663, -2888, 2761, -501, 3098, 1098, -69, -3321, -134, 1461, };
const TfArray<1, int> tensor_dimension5 = { 1, { 96 } };
const TfArray<96, float> quant5_scale = { 96, { 0.00014656207349617034, 0.00019741266441997141, 0.00020911182218696922, 0.00014855974586680532, 0.00010823838238138705, 0.00019190406601410359, 0.0001165572612080723, 0.00019966490799561143, 0.00014163609012030065, 0.00021437913528643548, 0.00013481738278642297, 0.00016852858243510127, 0.00012343416165094823, 9.7628246294334531e-05, 0.00014334736624732614, 0.00014990319323260337, 0.00024922905140556395, 0.00016726057219784707, 0.00013700507406610996, 0.00012938323197886348, 0.000168291648151353, 0.00016230651817750186, 0.00011147015175083652, 0.00016677046369295567, 0.00017346985987387598, 0.00016247699386440217, 0.00016722860164009035, 0.0001975270570255816, 9.5808005426079035e-05, 0.0001559055526740849, 0.0001056622204487212, 0.00019441079348325729, 0.00018027581973001361, 0.00014647142961621284, 0.00011344261292833835, 0.0001117955325753428, 0.00019113739836029708, 0.00015585354412905872, 0.00014363901573233306, 0.00012267030251678079, 0.00019308259652461857, 0.00014063263370189816, 0.00014188067871145904, 0.00011577703116927296, 0.00018198318139184266, 0.00013283932639751583, 0.00013132617459632456, 0.00018226027896162122, 0.00013224719441495836, 0.00014737926539964974, 0.00015468487981706858, 0.0001279526186408475, 0.00012416091340128332, 0.00014661347086075693, 0.00013926162500865757, 0.00014647077478002757, 0.00015222503861878067, 0.00012816410162486136, 0.00016768176283221692, 0.00011170125071657822, 0.00021550052042584866, 0.00016477769531775266, 0.00019665213767439127, 0.0001415834849467501, 0.00010327171185053885, 0.00017001900414470583, 0.0001020596464513801, 0.00010740839206846431, 0.00014713470591232181, 0.00018266447295900434, 0.00010496037430129945, 0.00011544459994183853, 0.00011964973236899823, 0.0001932287123054266, 0.00010526111873332411, 0.00011622524471022189, 0.00010678470425773412, 0.00014730558905284852, 0.00019088771659880877, 0.0001392049016430974, 9.9672273790929466e-05, 0.00020028249127790332, 0.00017546385060995817, 0.00018483608437236398, 0.00010226150334347039, 0.0001448120892746374, 0.00010675424709916115, 0.00013990707520861179, 0.00022409851953852922, 0.00018702668603509665, 0.0001995982020162046, 0.00018299368093721569, 0.00012539005547296256, 0.00013182278780732304, 0.00016947176482062787, 0.0001762582833180204, } };
const TfArray<96, int> quant5_zero = { 96, { 0,0,0,0,0,0,0,0,0,0,0,0,0,0,0,0,0,0,0,0,0,0,0,0,0,0,0,0,0,0,0,0,0,0,0,0,0,0,0,0,0,0,0,0,0,0,0,0,0,0,0,0,0,0,0,0,0,0,0,0,0,0,0,0,0,0,0,0,0,0,0,0,0,0,0,0,0,0,0,0,0,0,0,0,0,0,0,0,0,0,0,0,0,0,0,0 } };
const TfLiteAffineQuantization quant5 = { (TfLiteFloatArray*)&quant5_scale, (TfLiteIntArray*)&quant5_zero, 0 };
const MODEL_SECTION(EI_MODEL_SECTION) ALIGN(16) int8_t tensor_data6[96*1*1*16] = { 
  /* [0][0][][] */ 6,110,-79,55,70,-44,117,76,-52,3,36,-90,71,127,-72,9, 
  /* [1][0][][] */ -40,-11,-68,-17,-23,45,33,-127,39,-58,-31,-62,-10,-47,-70,19, 
  /* [2][0][][] */ -27,-20,37,65,15,26,-97,127,-34,7,78,-63,-34,-51,-45,58, 
  /* [3][0][][] */ 79,-79,79,9,9,-36,-17,127,-32,59,70,54,-22,44,6,1, 
  /* [4][0][][] */ -60,-21,0,70,-90,24,-16,-111,-2,-6,37,-18,13,62,121,127, 
  /* [5][0][][] */ 127,20,-27,-34,-88,19,23,63,12,-10,68,88,120,23,-83,10, 
  /* [6][0][][] */ 23,-33,-51,-58,-83,-1,-12,-58,-54,-45,-23,33,84,51,127,-18, 
  /* [7][0][][] */ -49,28,-18,-62,3,-61,-65,2,-90,49,-61,-66,-127,-34,-2,75, 
  /* [8][0][][] */ 48,41,64,13,43,7,76,10,76,-32,40,5,-127,-30,-86,18, 
  /* [9][0][][] */ -46,52,43,-36,-21,-15,38,9,-48,49,-40,5,32,127,10,27, 
  /* [10][0][][] */ 59,46,-43,60,-17,-20,56,-38,-57,-36,-58,-87,-127,-75,-3,75, 
  /* [11][0][][] */ 40,9,67,19,-10,-37,16,121,-81,23,-30,18,-31,-7,71,127, 
  /* [12][0][][] */ -36,-19,0,13,30,-13,127,48,-49,16,1,-8,-21,74,-61,104, 
  /* [13][0][][] */ 37,57,24,57,112,-8,88,65,-18,70,-69,-34,5,56,-127,-45, 
  /* [14][0][][] */ -93,127,10,-24,4,-19,50,-11,-44,37,122,4,-93,19,-32,28, 
  /* [15][0][][] */ -6,-15,-127,-52,80,-49,-92,-43,-33,-16,-10,-56,-3,-86,-51,50, 
  /* [16][0][][] */ 110,-9,7,-20,20,-51,42,-34,-32,2,127,34,26,3,-41,11, 
  /* [17][0][][] */ 16,14,-33,-97,-23,-77,127,-126,4,-32,-56,19,38,78,-12,62, 
  /* [18][0][][] */ 43,127,-14,-53,78,-124,-14,-67,-39,119,-15,3,-65,58,-55,-23, 
  /* [19][0][][] */ -55,-109,114,-102,31,-127,21,-52,44,40,94,85,16,-10,75,-38, 
  /* [20][0][][] */ -15,72,47,21,19,-13,34,-18,57,-19,86,-14,-127,-37,-83,4, 
  /* [21][0][][] */ -53,37,30,9,59,25,58,45,-127,56,-32,14,-33,23,-47,-29, 
  /* [22][0][][] */ 10,-73,41,28,28,-127,124,15,39,-58,-49,-66,27,-83,-70,-58, 
  /* [23][0][][] */ -58,-102,54,78,33,-25,22,-49,19,-39,88,-11,-1,83,56,127, 
  /* [24][0][][] */ 3,-16,19,91,45,6,-40,-127,79,8,-45,38,1,-14,-33,-13, 
  /* [25][0][][] */ -8,21,25,-59,-31,1,9,-45,-29,50,-48,-26,58,127,20,16, 
  /* [26][0][][] */ -71,69,-1,26,36,-74,4,-23,23,18,6,73,15,-3,-79,127, 
  /* [27][0][][] */ -19,-127,-47,0,-69,95,-5,-70,17,-33,69,-24,33,-45,-106,-38, 
  /* [28][0][][] */ -40,12,50,97,39,0,-31,-127,-120,55,107,3,70,0,-53,-39, 
  /* [29][0][][] */ -114,99,-22,-40,-33,28,-127,-73,-53,-32,0,-15,19,-45,-97,57, 
  /* [30][0][][] */ 73,103,-56,81,-118,-109,-94,-34,-35,2,17,-121,127,46,-8,84, 
  /* [31][0][][] */ 127,29,-65,-35,-82,16,123,65,-69,-14,79,61,32,29,-35,11, 
  /* [32][0][][] */ -48,-30,127,14,-14,69,91,31,-6,-23,-19,37,-2,62,49,55, 
  /* [33][0][][] */ 7,26,-55,-58,-29,25,104,16,-12,-12,35,-87,80,127,-47,44, 
  /* [34][0][][] */ -91,-32,91,6,18,-46,93,-6,-127,31,39,-35,38,41,-37,-13, 
  /* [35][0][][] */ -1,19,-46,12,-74,125,-38,-24,-22,127,9,99,-67,69,31,32, 
  /* [36][0][][] */ -18,-83,127,-43,-47,20,-34,-3,29,18,-57,103,-6,-99,-56,55, 
  /* [37][0][][] */ 97,-9,76,-35,112,-87,-56,28,-59,127,-64,7,-85,-48,112,-23, 
  /* [38][0][][] */ 62,47,10,-127,-24,-43,-124,54,-108,63,-101,-68,-44,-115,-91,64, 
  /* [39][0][][] */ -90,39,-53,-23,-72,-91,85,22,-127,-38,18,109,35,-3,10,45, 
  /* [40][0][][] */ 127,36,39,-84,-64,32,28,-25,-26,-44,-63,-122,23,31,-11,59, 
  /* [41][0][][] */ 80,-84,-66,-37,6,-1,-47,-14,73,-31,-7,-56,127,-79,43,-21, 
  /* [42][0][][] */ -6,-91,-46,125,-8,-107,-127,13,-2,16,15,54,-89,86,-51,-5, 
  /* [43][0][][] */ -84,-32,-45,-127,-66,-10,-10,69,33,-111,-28,43,-18,-47,-27,73, 
  /* [44][0][][] */ -39,18,36,-20,-5,-26,56,120,127,-94,65,126,110,30,-54,24, 
  /* [45][0][][] */ 14,86,-81,119,127,-115,-34,-65,104,-82,71,-65,-59,10,-112,54, 
  /* [46][0][][] */ -25,-51,3,5,109,-37,49,20,6,121,-31,-127,21,57,-83,92, 
  /* [47][0][][] */ 68,-54,-38,-2,86,-11,-33,-53,4,127,-36,40,-5,-117,-92,25, 
  /* [48][0][][] */ 14,-2,-4,-107,-4,-54,117,-127,-3,11,-48,41,10,77,-11,21, 
  /* [49][0][][] */ -29,127,-65,51,70,-92,90,73,-30,9,37,-70,-56,57,97,-102, 
  /* [50][0][][] */ 15,34,-22,-3,-127,-10,-65,-64,60,51,22,31,-37,-49,-7,34, 
  /* [51][0][][] */ 127,-33,-43,-20,-54,82,-101,-45,39,-11,-35,69,-39,-60,9,33, 
  /* [52][0][][] */ -37,-65,39,83,-58,-92,-127,10,-43,-75,-50,-112,-8,-58,-17,100, 
  /* [53][0][][] */ 31,106,60,-127,0,102,81,-22,-23,-17,0,-34,79,-105,10,45, 
  /* [54][0][][] */ 35,122,12,-29,-11,-95,-110,49,-6,-16,-32,127,67,90,22,56, 
  /* [55][0][][] */ -63,-27,48,44,46,-33,127,114,-72,-14,15,31,123,47,-15,12, 
  /* [56][0][][] */ 127,25,22,22,-45,104,-56,-77,-29,53,-79,16,-54,102,-6,30, 
  /* [57][0][][] */ -48,-33,-60,-28,-90,-127,67,-20,-123,-39,54,43,-2,43,-28,54, 
  /* [58][0][][] */ 47,-58,67,16,0,-68,-24,4,27,-7,-127,-15,31,-42,-29,57, 
  /* [59][0][][] */ 57,6,-127,103,13,32,95,-19,-57,-53,22,-87,-120,-67,12,113, 
  /* [60][0][][] */ -10,26,2,39,0,-26,-9,13,-27,-75,53,110,-52,-127,-57,-12, 
  /* [61][0][][] */ -34,22,97,-116,-83,40,-16,127,-29,-91,68,50,70,11,12,102, 
  /* [62][0][][] */ 78,58,-1,-127,-7,-22,14,-40,-20,38,-31,53,10,-20,-101,-92, 
  /* [63][0][][] */ -1,-25,1,3,-79,-83,-60,17,-65,-14,-39,-20,127,1,44,-16, 
  /* [64][0][][] */ 36,16,-3,46,-119,-72,-34,-101,54,127,46,-3,19,-43,-52,93, 
  /* [65][0][][] */ -32,5,-21,-1,-62,56,34,-12,61,-113,81,-46,51,50,-127,57, 
  /* [66][0][][] */ -127,88,-104,-95,35,-31,-122,-53,-98,105,78,-11,-107,-68,31,71, 
  /* [67][0][][] */ -3,-27,-127,-127,60,74,0,-30,-35,1,57,-23,26,48,22,44, 
  /* [68][0][][] */ 40,6,-16,-59,-79,31,12,57,-72,71,127,-16,-27,-40,-97,7, 
  /* [69][0][][] */ 59,-86,61,-41,21,-102,-23,127,-13,72,89,83,-32,67,-15,-10, 
  /* [70][0][][] */ 36,19,127,41,86,-23,114,5,25,31,-58,30,-83,84,-64,18, 
  /* [71][0][][] */ 13,28,97,-83,-127,-81,9,3,-28,-5,28,-97,-67,-3,18,28, 
  /* [72][0][][] */ -67,-98,17,-110,66,-12,14,56,-57,9,-127,-19,56,110,-70,123, 
  /* [73][0][][] */ 15,22,58,0,127,-78,-45,18,-47,105,-82,48,-84,-49,116,-21, 
  /* [74][0][][] */ -93,1,-127,-51,61,-39,-24,40,-65,-1,-124,-24,-31,-64,-62,84, 
  /* [75][0][][] */ 102,-27,44,-36,15,-4,-127,-36,6,-108,63,6,9,-20,-22,-7, 
  /* [76][0][][] */ -19,-54,-42,127,17,78,110,-49,107,-117,61,115,25,-85,-72,49, 
  /* [77][0][][] */ -41,-54,126,-27,25,-33,-17,-127,27,3,32,71,56,56,10,14, 
  /* [78][0][][] */ -33,0,0,-22,-3,-51,38,-11,30,-24,13,-91,-90,-62,-127,-37, 
  /* [79][0][][] */ -109,-81,-24,35,127,21,-1,37,49,22,-13,29,-66,-70,-88,-8, 
  /* [80][0][][] */ 6,-115,55,127,-33,-48,-102,80,-4,17,78,-11,-102,-12,-54,68, 
  /* [81][0][][] */ 91,55,-1,99,5,15,35,127,22,15,92,71,107,20,51,-28, 
  /* [82][0][][] */ -47,9,18,-17,44,-127,-84,-69,-2,66,-33,-29,-42,87,-73,-25, 
  /* [83][0][][] */ 86,-40,78,-41,-61,-31,-121,0,12,-127,0,-47,-19,-2,-17,-17, 
  /* [84][0][][] */ -3,-96,-126,18,127,53,47,45,-126,41,-120,-15,75,-37,-65,31, 
  /* [85][0][][] */ 7,107,49,-64,75,-4,22,-127,107,-11,56,10,98,-53,25,-28, 
  /* [86][0][][] */ 117,-52,127,51,-3,-57,88,60,-66,-66,-104,-66,23,27,-82,29, 
  /* [87][0][][] */ 0,13,17,-105,67,-23,-69,26,23,-34,95,-30,-88,-127,22,24, 
  /* [88][0][][] */ -53,-27,38,-11,12,25,-63,-44,-12,12,-60,-127,-45,-29,-11,-14, 
  /* [89][0][][] */ -66,20,19,-70,11,-13,-127,5,90,27,-56,-1,-8,-68,-44,-21, 
  /* [90][0][][] */ -15,-20,-34,-63,127,11,-44,40,53,43,21,-3,25,6,-80,-13, 
  /* [91][0][][] */ -56,-68,53,35,-70,-22,-39,73,-45,-54,44,-97,-34,96,1,127, 
  /* [92][0][][] */ -26,89,9,-2,-12,52,-103,54,-48,0,79,21,-50,127,58,14, 
  /* [93][0][][] */ -7,68,-59,-57,73,89,-81,1,70,58,64,57,-127,16,-46,82, 
  /* [94][0][][] */ 23,80,118,25,-127,-66,27,-2,14,-14,44,1,-83,-20,4,-40, 
  /* [95][0][][] */ -21,39,56,15,127,-23,-92,92,2,40,-71,107,-21,23,101,-41, 
};
const TfArray<4, int> tensor_dimension6 = { 4, { 96,1,1,16 } };
const TfArray<96, float> quant6_scale = { 96, { 0.0020587698090821505, 0.002773072337731719, 0.0029374114237725735, 0.0020868312567472458, 0.001520433695986867, 0.002695692703127861, 0.0016372896498069167, 0.0028047098312526941, 0.001989574171602726, 0.0030114017426967621, 0.0018937912536785007, 0.0023673351388424635, 0.0017338901525363326, 0.0013713921653106809, 0.0020136125385761261, 0.0021057028789073229, 0.0035009414423257113, 0.0023495233617722988, 0.0019245217554271221, 0.0018174572614952922, 0.0023640070576220751, 0.0022799333091825247, 0.001565830665640533, 0.0023426387924700975, 0.0024367456790059805, 0.0022823279723525047, 0.0023490742314606905, 0.002774679334834218, 0.0013458231696859002, 0.0021900185383856297, 0.0014842461096122861, 0.002730904845520854, 0.0025323496665805578, 0.0020574964582920074, 0.0015935379778966308, 0.0015704012475907803, 0.0026849231217056513, 0.0021892879158258438, 0.0020177094265818596, 0.0017231600359082222, 0.0027122474275529385, 0.0019754783716052771, 0.0019930098205804825, 0.0016263297293335199, 0.0025563330855220556, 0.0018660052446648479, 0.0018447497859597206, 0.002560225548222661, 0.0018576874863356352, 0.0020702490583062172, 0.0021728714928030968, 0.0017973611829802394, 0.0017440988449379802, 0.0020594918169081211, 0.0019562197849154472, 0.0020574873778969049, 0.0021383180283010006, 0.0018003319855779409, 0.0023554398212581873, 0.001569076906889677, 0.0030271538998931646, 0.0023146462626755238, 0.0027623891364783049, 0.0019888351671397686, 0.0014506664592772722, 0.0023882712703198195, 0.0014336404856294394, 0.0015087747015058994, 0.0020668136421591043, 0.0025659033562988043, 0.0014743872452527285, 0.0016216600779443979, 0.0016807299107313156, 0.002714300062507391, 0.0014786118408665061, 0.0016326258191838861, 0.0015000137500464916, 0.0020692141260951757, 0.0026814157608896494, 0.0019554230384528637, 0.0014001048402860761, 0.0028133851010352373, 0.0024647554382681847, 0.0025964081287384033, 0.001436476013623178, 0.0020341875497251749, 0.0014995859237387776, 0.0019652864430099726, 0.0031479308381676674, 0.0026271797250956297, 0.0028037726879119873, 0.0025705276057124138, 0.0017613647505640984, 0.0018517258577048779, 0.0023805841337889433, 0.0024759150110185146, } };
const TfLiteAffineQuantization quant6 = { (TfLiteFloatArray*)&quant6_scale, (TfLiteIntArray*)&g0::quant5_zero, 0 };
const MODEL_SECTION(EI_MODEL_SECTION) ALIGN(16) int32_t tensor_data7[16] = { 6466, 12341, -9607, 5203, 590, 11331, 4153, 546, 20388, -8114, -10354, 733, -14210, 10061, 3358, 13037, };
const TfArray<1, int> tensor_dimension7 = { 1, { 16 } };
const TfArray<16, float> quant7_scale = { 16, { 5.1944971346529201e-05, 8.1481150118634105e-05, 4.7788889787625521e-05, 6.045468762749806e-05, 8.1303209299221635e-05, 8.9579407358542085e-05, 5.090213380753994e-05, 7.9694800660945475e-05, 8.0617319326847792e-05, 7.3962546593975276e-05, 5.7454941270407289e-05, 8.5457017121370882e-05, 8.0896774306893349e-05, 6.0552589275175706e-05, 0.00010012579878093675, 8.5283863882068545e-05, } };
const TfArray<16, int> quant7_zero = { 16, { 0,0,0,0,0,0,0,0,0,0,0,0,0,0,0,0 } };
const TfLiteAffineQuantization quant7 = { (TfLiteFloatArray*)&quant7_scale, (TfLiteIntArray*)&quant7_zero, 0 };
const MODEL_SECTION(EI_MODEL_SECTION) ALIGN(16) int8_t tensor_data8[16*1*1*96] = { 
  /* [0][0][][] */ -110,45,63,-18,-63,-13,-60,-1,-45,5,-8,-37,51,42,52,-29,22,10,90,22,13,-54,127,76,43,22,1,29,-58,-125,-88,12,-33,-36,40,16,20,43,6,30,-2,-2,-79,14,-63,-34,-10,82,-20,3,-51,-21,-7,2,41,-50,-102,16,-4,69,54,27,-1,4,-37,-66,-50,47,-50,-57,18,-19,-2,-4,-76,-46,-39,8,-29,-1,-50,66,77,-68,4,53,19,47,44,-17,-1,-35,-26,-36,-68,18, 
  /* [1][0][][] */ 27,16,29,-47,-45,-34,-2,2,5,17,61,-63,-4,-19,-64,-22,19,21,-75,46,-12,-54,18,54,-25,-63,-12,-32,63,-123,104,-75,71,16,-11,63,40,104,-6,-44,20,3,7,10,-4,51,-127,-52,-45,-57,-31,-43,31,-61,-13,51,16,-16,-25,-3,35,51,6,-101,-1,-35,-76,3,19,5,-68,-3,-46,-19,1,-65,5,21,36,-48,-27,-30,-87,-14,23,-40,-3,22,-72,-8,-48,58,25,62,-77,41, 
  /* [2][0][][] */ 87,-36,30,24,27,-99,68,-3,-11,-8,0,-14,-102,-42,21,-22,-79,-40,-27,63,17,-24,-43,31,-5,-74,12,-17,-35,55,-65,105,-49,127,-7,24,13,-20,-6,1,-106,72,90,21,-54,-2,-11,-12,46,4,-31,-44,51,-15,-15,61,23,5,53,1,4,55,-31,35,59,24,-12,4,40,71,-41,-2,74,33,46,25,39,-84,98,62,85,-18,-54,34,-56,8,27,74,24,13,-22,31,-47,49,-14,51, 
  /* [3][0][][] */ 4,-1,-17,1,6,-19,16,-54,-45,54,37,67,21,-17,-59,37,9,-41,30,13,26,127,22,-64,19,25,-26,3,73,-35,66,-26,-15,34,-46,-33,25,39,39,10,-75,-32,-25,33,-25,33,20,-3,-29,-55,-7,-28,58,-79,-46,-55,5,91,-36,11,-11,-6,-54,1,27,47,-26,-4,-33,7,-2,-87,-37,-48,22,-17,11,-4,-28,-45,-27,-15,-69,28,-13,-45,34,-31,-13,20,26,-6,50,16,-31,63, 
  /* [4][0][][] */ 39,8,-45,8,18,14,-44,22,-55,72,88,-7,-11,10,13,-51,20,-1,-38,49,21,-56,36,72,-63,6,-127,26,-44,-57,2,27,-62,-43,11,57,11,30,27,34,-34,-42,48,-10,1,13,-41,53,-57,50,10,24,56,-3,-77,4,37,-13,1,2,37,7,14,4,-42,12,-10,25,-60,32,-60,35,29,-74,-50,-55,38,-42,7,-14,-50,77,-96,25,-23,9,36,-67,54,-2,18,32,-51,-29,44,30, 
  /* [5][0][][] */ -88,48,44,-14,44,5,51,-40,-18,29,-2,-10,46,-33,-35,-54,-35,-65,63,11,-127,-59,-62,33,-39,-3,38,5,36,-78,-7,62,44,112,-14,41,-40,33,21,-17,-22,95,56,-56,4,76,37,6,-11,7,-21,28,2,-34,16,-74,56,-37,-49,-60,49,72,-66,-19,87,-64,-48,-71,-75,-32,-39,-21,-27,26,1,-42,45,-40,-57,-46,126,-15,25,-102,-68,54,17,-18,-49,38,23,-32,-4,19,34,86, 
  /* [6][0][][] */ 30,-15,-94,35,-48,-127,94,107,-79,59,-16,81,-126,-69,61,50,14,-55,-15,-2,7,-21,-80,-76,-51,51,68,24,34,34,81,-55,29,-2,-1,-66,5,-13,34,77,5,22,-39,-20,17,-55,-75,24,24,-108,-31,83,49,22,-30,-79,60,26,4,13,-112,52,-90,-19,32,7,11,64,30,29,-30,-66,-46,16,79,30,56,-10,53,-100,-25,-59,-88,93,11,-63,43,10,-62,57,34,67,-25,-4,-31,103, 
  /* [7][0][][] */ 12,72,-30,-55,-18,-33,37,9,-58,21,-21,-52,-58,5,11,0,-33,-43,-22,62,-7,127,11,16,-14,6,13,25,36,34,55,-51,72,10,-6,7,0,-5,2,44,-65,-5,28,-48,39,-39,68,-8,39,-60,-85,-29,-46,-4,5,-8,13,21,-78,8,1,96,16,-22,-7,0,-43,27,-30,1,-84,17,45,55,-45,25,-40,31,33,-69,-6,-45,36,-63,54,-36,-8,-2,-20,68,-57,45,46,-39,-37,16, 
  /* [8][0][][] */ 3,78,-43,47,-37,-16,-96,44,-105,-35,-13,25,-33,50,44,73,1,-42,-2,-2,44,-27,-5,-17,-37,80,-8,47,-13,-13,-43,-10,-35,-48,-39,-65,-48,29,54,-12,1,-44,15,17,-59,-26,-3,-21,-37,-21,60,84,7,-12,-79,93,-30,6,-12,-37,-44,4,27,52,-39,-76,-8,-14,-41,-4,-6,-10,-41,-54,-118,-11,-32,40,-86,-54,-45,4,-39,-26,0,16,16,30,21,57,-72,-9,-94,-127,33,-54, 
  /* [9][0][][] */ -17,18,-64,40,-15,-32,72,41,6,44,-10,82,-30,-25,29,127,23,24,64,25,16,22,38,-78,-39,-1,18,10,10,-24,36,51,-16,8,25,-92,36,8,-20,-10,-18,8,48,-8,-9,5,2,12,33,74,28,-18,-59,-77,16,3,5,-8,73,-32,-57,49,-51,-12,74,-28,-25,31,-56,33,42,30,-4,74,-21,-23,-14,19,-28,-14,52,-27,45,-2,30,-20,-1,-33,-25,30,4,-6,60,32,-52,2, 
  /* [10][0][][] */ 65,-11,-40,-1,-17,-46,78,-4,26,-28,-17,-25,-101,-23,19,-2,-46,-3,8,27,54,59,18,7,-61,77,25,11,-49,-86,-32,-21,80,-41,57,15,86,-71,100,127,9,-62,21,26,-20,-96,-18,51,26,78,-66,-58,-15,20,30,46,15,-84,68,43,-4,59,-51,-7,-11,-69,-4,67,34,-14,-6,47,120,27,7,-81,20,-52,68,-8,-44,22,22,39,-46,-18,22,35,-42,-8,34,71,47,60,-55,-13, 
  /* [11][0][][] */ -50,-19,57,-62,28,-5,-8,-26,56,-50,29,14,-6,5,12,22,-70,-23,45,25,-50,-8,-53,-78,33,25,-30,61,40,-40,30,-5,34,-1,-4,12,-53,53,-126,39,-71,62,-33,66,25,17,-13,-28,35,-36,-72,-57,16,20,85,-73,-6,-40,32,-45,-32,-57,-23,-127,46,-78,94,105,99,48,45,-39,-39,-8,66,-57,97,52,36,28,48,-2,-46,64,98,-1,11,-23,-58,-52,-1,26,49,34,54,84, 
  /* [12][0][][] */ 37,-18,-11,-25,27,127,-14,32,53,66,-1,76,32,61,7,-10,-91,28,16,42,109,-36,79,-63,41,29,-61,-84,-11,93,20,33,29,6,8,-38,21,9,-42,-28,26,-5,14,39,-11,49,-10,-6,-71,28,3,30,-30,-26,4,27,-26,74,17,45,25,-107,7,-116,6,81,6,-34,-19,-56,70,12,-23,27,21,51,1,45,-103,-30,-13,42,125,-3,-2,87,-39,-69,74,6,-83,29,77,7,-1,-86, 
  /* [13][0][][] */ -22,34,-28,-38,-25,-26,19,-50,28,-29,-22,-93,49,-113,-49,-69,5,-32,-92,-11,-90,-12,23,106,-41,-3,112,-7,13,-50,55,35,33,-5,-102,127,-31,-44,47,-48,109,11,6,36,10,-97,64,-32,82,-8,-50,9,19,-12,14,80,55,-54,-40,-18,61,56,9,-91,-10,36,-61,38,-61,-31,-63,2,-61,21,-53,-82,-123,10,54,84,-19,61,30,-89,51,26,50,-12,-20,-5,0,11,-62,13,-33,-13, 
  /* [14][0][][] */ -17,35,-77,-30,91,96,-75,-20,56,-45,91,-19,28,-34,-47,-72,-86,-1,33,127,-10,-43,13,18,1,38,-27,53,19,-11,-22,6,73,10,-34,3,-20,84,60,13,57,0,25,-8,3,-40,54,-44,38,-10,-21,-33,36,4,-31,32,27,84,-87,-32,-7,-75,-42,-111,17,-57,-63,1,-82,50,-18,26,1,-27,1,-39,37,-22,-48,-25,64,8,-1,-45,-1,60,-22,-25,-22,77,76,-10,0,-37,-39,-48, 
  /* [15][0][][] */ -67,-47,30,-58,0,-44,-46,-79,-24,21,-11,83,-22,-16,20,85,-111,-51,18,-74,29,-25,-14,-92,67,-4,59,-77,-72,-92,-66,21,-45,51,60,-108,-30,-71,24,-15,-29,15,19,-31,4,0,82,110,-43,-3,16,-28,-40,64,-5,-57,-112,-6,99,37,-32,27,-99,16,-72,26,18,11,42,-84,73,-17,68,-36,-35,-41,3,9,56,2,-29,76,58,39,1,-28,-127,11,-26,-64,-88,32,36,-40,-2,75, 
};
const TfArray<4, int> tensor_dimension8 = { 4, { 16,1,1,96 } };
const TfArray<16, float> quant8_scale = { 16, { 0.0022076612804085016, 0.0034629488363862038, 0.0020310278050601482, 0.0025693241041153669, 0.0034553862642496824, 0.0038071246817708015, 0.0021633405704051256, 0.0033870288170874119, 0.0034262361004948616, 0.003143408102914691, 0.0024418348912149668, 0.0036319231148809195, 0.0034381127916276455, 0.0025734850205481052, 0.0042553464882075787, 0.0036245640367269516, } };
const TfLiteAffineQuantization quant8 = { (TfLiteFloatArray*)&quant8_scale, (TfLiteIntArray*)&g0::quant7_zero, 0 };
const MODEL_SECTION(EI_MODEL_SECTION) ALIGN(16) int32_t tensor_data9[96] = { 1768, -1965, -2815, -4196, 2957, 1729, 2264, 513, -1982, 995, 10746, -2135, -2086, 9688, 7608, -2695, 19720, 3070, -6868, 938, -439, -2600, -4652, -1846, -303, -7123, -3136, -4153, -1240, -7504, 2085, 159, 16355, -382, -2972, -123, 477, -1303, -817, 7817, 51, -2283, 1714, -3934, 11756, 16860, -1199, 7270, 3627, 14927, 12563, -2294, 288, 943, 1411, 2730, -608, -986, 17056, 5297, 7194, 12641, 5885, -7018, 6209, -839, -1641, 3919, -7807, -2416, 890, 2298, 13213, -3728, 2528, 13085, -570, 3389, 10747, -1188, -825, 13226, 2140, 512, 18267, 6780, -6904, -2230, -3262, -6072, 13432, -705, -422, -1390, -3722, -3717, };
const TfArray<96, float> quant9_scale = { 96, { 0.00037047921796329319, 0.00022678989626001567, 0.00011432958126533777, 0.00017053255578503013, 0.0002389248984400183, 0.00025086491950787604, 0.00031298972317017615, 0.00023895995400380343, 0.00017195963300764561, 0.00017440100782550871, 9.6507304988335818e-05, 0.0002828874858096242, 0.00027643787325359881, 0.00015136873116716743, 0.00014635063416790217, 0.00019576425256673247, 9.2534559371415526e-05, 0.00027821504045277834, 0.00013662342098541558, 7.6627817179542035e-05, 0.00017279297753702849, 0.00033129504299722612, 0.00020110224431846291, 0.00024669466074556112, 0.00046010955702513456, 0.00011477419320726767, 0.00026149483164772391, 0.00012836196401622146, 0.00023862693342380226, 0.0001066520853783004, 0.00031084442161954939, 0.00021385193394962698, 0.00015387532766908407, 0.00019070587586611509, 0.0002542913134675473, 0.00035387833486311138, 0.00020880480587948114, 0.00031866334029473364, 0.00031051988480612636, 9.4458868261426687e-05, 0.00019082440121565014, 0.00022751209326088428, 0.00026641244767233729, 0.00012614269508048892, 0.00011568682384677231, 8.6763429862912744e-05, 0.00029515480855479836, 0.0001298196439165622, 0.00020094717910978943, 6.6310807596892118e-05, 9.7653086413629353e-05, 0.00012991610856261104, 0.0001629931794013828, 0.00015663447265978903, 0.00025583873502910137, 0.00024629072868265212, 0.00026255930424667895, 0.00023666457855142653, 0.00011390795407351106, 0.00010933421435765922, 0.00013535704056266695, 0.00017506683070678264, 0.00011537418322404847, 0.00011924224236281589, 0.00015235328464768827, 0.00034809083444997668, 0.00031089142430573702, 0.00025986341643147171, 0.00020126183517277241, 0.00018933704996015877, 0.00021935404220130295, 0.00016701481945347041, 0.00013518640480469912, 0.00017346626555081457, 0.00022642694239038974, 8.1681311712600291e-05, 0.00014528779138345271, 0.0001632393104955554, 0.00014578700938727707, 0.0002654862473718822, 0.00032247212948277593, 8.5554675024468452e-05, 0.00021964142797514796, 0.00017763581126928329, 6.2849358073435724e-05, 0.0001557411887915805, 0.00010887465759878978, 0.00028765096794813871, 0.00024755124468356371, 0.00016363029135391116, 8.2101600128225982e-05, 0.00029967410955578089, 0.00024100863083731383, 0.00029086953145451844, 0.00015840811829548329, 0.00030958003480918705, } };
const TfLiteAffineQuantization quant9 = { (TfLiteFloatArray*)&quant9_scale, (TfLiteIntArray*)&g0::quant5_zero, 0 };
const MODEL_SECTION(EI_MODEL_SECTION) ALIGN(16) int8_t tensor_data10[1*3*3*96] = { 
  /* [0][0][][] */ 14,127,13,23,-56,-3,31,35,93,-79,-88,6,-22,3,25,-47,-78,2,26,43,23,75,85,95,35,20,-36,5,-14,30,13,7,-92,9,-23,99,5,90,10,-15,33,-25,-17,51,-80,-26,4,-17,-45,-127,-21,-39,19,56,-42,17,-94,-62,-41,-127,-127,-9,-126,-9,-61,37,22,-13,2,41,34,4,-5,11,26,2,24,-73,-88,25,13,-82,47,-5,-80,-93,9,-7,-100,13,-127,47,72,9,59,1, -21,-7,16,106,-9,127,-49,12,111,18,-127,83,-12,-13,-99,89,-63,68,80,127,116,-1,127,127,57,26,27,47,8,127,-6,-122,45,90,14,29,56,103,-12,-127,127,-2,70,127,-55,-26,127,-61,-22,-107,-125,-47,-8,127,-34,-127,7,40,-127,-91,-107,-127,-38,95,-69,86,127,-25,25,127,127,-9,-43,58,-60,-99,51,-90,-15,127,-10,-65,127,-80,-93,-53,114,66,110,89,-92,12,127,-18,127,18, 18,-83,-21,3,-32,-12,-20,30,59,54,-76,-6,-16,27,-18,-71,-87,6,31,42,27,71,71,87,38,-22,40,43,11,31,-24,-65,-88,-70,-22,57,-2,85,12,-14,-7,43,-21,47,-42,-48,3,7,-2,-102,2,-18,-1,2,-11,20,39,-69,-10,-64,-83,24,-125,1,16,5,-6,-26,-5,14,-1,17,27,-36,-18,4,35,-35,-90,14,18,-69,31,-3,-24,-74,26,-19,-67,9,-61,34,22,36,43,-8, 
  /* [0][1][][] */ 54,-7,73,127,-15,-68,115,13,-12,-127,-62,127,5,-127,-24,21,-127,-60,73,44,-123,5,-99,-63,-3,97,-119,127,-52,86,127,80,10,46,18,127,-127,74,-20,-78,62,-127,17,63,-127,-92,-13,-79,-127,-88,-119,26,127,-58,69,24,-127,-4,-56,17,-44,-77,-24,51,-127,-19,55,-70,-13,54,-29,-127,-127,87,123,-122,104,82,-123,-50,127,-124,-43,124,-34,-39,45,54,-6,32,-49,58,-4,-82,56,0, -127,0,-29,98,-88,-104,-127,-127,106,-4,10,71,-53,-57,-88,127,-84,-127,127,113,21,-127,-74,65,-127,127,18,75,-62,-7,-123,78,-127,54,127,-53,2,127,127,-122,-54,31,29,29,-24,-127,-76,-127,-3,-87,-127,127,19,63,59,-1,33,31,41,-11,-22,-51,-115,127,-33,-127,71,127,51,44,-86,-74,-49,87,-127,-127,127,127,83,-49,-69,10,-80,72,-122,-102,127,127,127,127,-98,-127,-98,-57,23,127, 44,-4,86,76,-5,-46,-8,-3,-44,95,-119,104,8,-29,-127,53,-46,-37,28,9,-127,10,-55,-61,10,40,127,12,127,89,15,-127,-28,-127,-6,127,-119,7,-46,-69,-17,98,23,82,-24,-34,-19,-47,96,-126,-82,-1,56,-93,-127,73,87,1,-127,99,-37,-46,-14,54,121,-36,7,-32,-27,25,-27,-48,-97,-127,-20,-62,12,-43,-127,-35,-25,-127,-39,127,-127,-6,30,5,-18,14,-4,64,-12,127,34,3, 
  /* [0][2][][] */ 16,-101,43,-11,-12,20,39,47,-65,-57,-34,-59,22,-35,37,6,-53,11,-2,92,8,38,6,-13,46,118,1,17,-8,1,-7,24,-35,2,-17,23,53,-36,3,-33,0,43,-21,-31,-23,-67,14,43,-35,0,-18,38,-8,-19,-34,21,0,-4,-3,60,-16,-12,78,-12,-56,59,-75,-38,31,38,21,72,-63,38,7,-14,-68,-50,-35,3,2,-5,-43,-19,-66,8,-9,-37,-62,37,24,41,-14,24,7,-5, -54,26,127,-6,127,92,-31,33,-127,1,-109,-41,127,-39,-35,-14,-12,55,31,-37,41,26,74,-24,106,-76,2,32,-9,86,-29,14,-82,38,18,-27,58,42,30,-112,-19,23,-127,8,2,-53,3,-7,-17,-111,-11,87,85,-76,-24,-60,1,127,-53,17,117,-104,127,56,-56,41,-82,0,127,1,6,87,-113,46,-41,-87,-28,-111,-45,-29,-23,-46,-48,-55,-66,127,18,4,100,33,92,44,-30,-7,-28,3, 10,94,31,-39,-15,0,-26,32,-29,48,-22,3,21,-25,40,24,-70,2,11,57,18,43,-2,-16,31,101,26,25,8,15,-33,-95,-57,-16,-10,12,51,-34,-5,-11,0,8,0,-1,-30,-46,16,40,0,-10,-44,30,-9,-25,3,32,21,10,-7,98,-12,14,54,-17,18,27,-64,-19,42,33,10,69,-27,-2,-29,-15,-30,-26,-35,7,-13,-32,-45,0,-41,19,-8,-24,-51,47,27,31,-21,24,-4,-6, 
};
const TfArray<4, int> tensor_dimension10 = { 4, { 1,3,3,96 } };
const TfArray<96, float> quant10_scale = { 96, { 0.015745365992188454, 0.009638570249080658, 0.0048590069636702538, 0.0072476333007216454, 0.010154307819902897, 0.010661758482456207, 0.013302062638103962, 0.010155797936022282, 0.0073082842864096165, 0.0074120424687862396, 0.0041015604510903358, 0.012022717855870724, 0.011748609133064747, 0.0064331712201237679, 0.0062199016101658344, 0.0083199804648756981, 0.0039327186532318592, 0.011824139393866062, 0.0058064949698746204, 0.0032566823065280914, 0.0073437015525996685, 0.014080039225518703, 0.008546845056116581, 0.010484523139894009, 0.019554655998945236, 0.0048779030330479145, 0.011113530024886131, 0.0054553835652768612, 0.01014164462685585, 0.0045327134430408478, 0.013210887089371681, 0.0090887071564793587, 0.006539701484143734, 0.0081049995496869087, 0.010807381011545658, 0.015039828605949879, 0.008874204009771347, 0.01354319229722023, 0.013197095133364201, 0.0040145018137991428, 0.0081100370734930038, 0.0096692638471722603, 0.011322529055178165, 0.0053610643371939659, 0.0049166898243129253, 0.0036874457728117704, 0.012544079683721066, 0.0055173346772789955, 0.0085402550175786018, 0.0028182091191411018, 0.0041502560488879681, 0.0055214343592524529, 0.0069272099062800407, 0.0066569652408361435, 0.01087314635515213, 0.010467356070876122, 0.011158769950270653, 0.010058244690299034, 0.0048410878516733646, 0.0046467040665447712, 0.0057526738382875919, 0.0074403402395546436, 0.0049034026451408863, 0.0050677950493991375, 0.0064750146120786667, 0.014793859794735909, 0.013212885707616806, 0.011044194921851158, 0.0085536278784275055, 0.0080468244850635529, 0.0093225464224815369, 0.0070981299504637718, 0.0057454220950603485, 0.0073723159730434418, 0.0096231447532773018, 0.0034714557696133852, 0.0061747310683131218, 0.0069376705214381218, 0.006195947527885437, 0.011283165775239468, 0.013705065473914146, 0.0036360735539346933, 0.0093347607180476189, 0.00754952197894454, 0.0026710976380854845, 0.0066190003417432308, 0.0046271728351712227, 0.012225165963172913, 0.010520927608013153, 0.0069542871788144112, 0.0034893180709332228, 0.01273614913225174, 0.010242866352200508, 0.012361954897642136, 0.0067323446273803711, 0.013157151639461517, } };
const TfLiteAffineQuantization quant10 = { (TfLiteFloatArray*)&quant10_scale, (TfLiteIntArray*)&g0::quant5_zero, 3 };
const MODEL_SECTION(EI_MODEL_SECTION) ALIGN(16) int32_t tensor_data11[96] = { 6898, 2936, 1090, -1643, 7427, 8651, 5458, 1548, -691, 9963, 1231, -3808, 3258, 4305, 690, -805, 4345, 9027, -138, -523, 3792, 10374, 6440, -1418, -4560, -558, 18119, -230, 1196, 1729, 7169, -1696, 9609, 2563, 6356, -3231, 485, -5329, 455, 1550, 2555, 1256, 1799, -918, 749, 2785, 2780, 5843, 5111, 3307, 5423, 2226, -3563, 2904, 1159, 2451, 3101, 2612, 6793, 1053, -1181, 9098, 4181, 4839, 6455, 9340, -5973, 2821, 4254, -1082, 6266, 1699, 3085, 2432, 3777, 1620, -786, 2448, 3426, 3089, 2347, 2382, 6422, 292, 2909, 9619, 534, -1733, 20050, -285, 689, -1403, 15509, 2123, -31, -1089, };
const TfArray<96, float> quant11_scale = { 96, { 0.00011022323451470584, 0.00011439903755672276, 0.00015596566663589329, 0.00016932978178374469, 9.9075878097210079e-05, 9.2467184003908187e-05, 0.00015706148406025022, 0.00018655133317224681, 0.00010923400259343907, 7.3661954957060516e-05, 0.00019123450329061598, 0.00012230667925905436, 0.00014683982590213418, 0.00012022526061628014, 0.00015948219515848905, 0.00013935456809122115, 0.00016461747873108834, 8.126239845296368e-05, 0.00015879054262768477, 0.00012355674698483199, 0.0001672655635047704, 8.2382313848938793e-05, 0.00012695217446889728, 0.00016602825780864805, 0.00011437846114858985, 0.00015212464495562017, 5.0797138101188466e-05, 0.00013418550952337682, 0.00016999038052745163, 0.0001407999952789396, 0.00011199560685781762, 0.00015687440463807434, 9.2940688773524016e-05, 0.00019527877157088369, 0.00011082636774517596, 0.0001804692146833986, 0.00023502536350861192, 0.00013012980343773961, 0.00016814854461699724, 0.00017490876780357212, 0.00014706315414514393, 0.00021081975137349218, 0.00020491366740316153, 0.00017826822295319289, 0.00030484594753943384, 0.0001528593129478395, 0.00020483450498431921, 0.00010076769103761762, 0.00013125687837600708, 0.00014703228953294456, 0.00012753860210068524, 0.00019312399672344327, 0.00012711170711554587, 0.00013269842020235956, 0.0002470193721819669, 0.0001329008664470166, 0.00012905299081467092, 0.00014685704081784934, 0.00011078894749516621, 0.00017233040125574917, 0.00019878979946952313, 8.1634010712150484e-05, 0.00015365376020781696, 0.00012603473442140967, 0.0001077930792234838, 8.608044299762696e-05, 0.000101783502032049, 0.00015783960407134145, 0.00014543715224135667, 0.00020588198094628751, 0.00010384806228103116, 0.00014349266712088138, 0.00015018074191175401, 0.00017191708320751786, 0.00015490350779145956, 0.00012567239173222333, 0.00015905441250652075, 0.00016029867401812226, 0.00013316496915649623, 0.00016045873053371906, 0.0001699372660368681, 0.00015470158541575074, 0.00012534622510429472, 0.00012585383956320584, 0.00012843290460295975, 8.6224841652438045e-05, 0.00012978821177966893, 0.0001485689717810601, 4.5664579374715686e-05, 0.00017933557683136314, 0.00023381029313895851, 0.0001869476109277457, 5.6918604968814179e-05, 0.00020095043873880059, 0.00020634257816709578, 0.00013703192234970629, } };
const TfLiteAffineQuantization quant11 = { (TfLiteFloatArray*)&quant11_scale, (TfLiteIntArray*)&g0::quant5_zero, 0 };
const MODEL_SECTION(EI_MODEL_SECTION) ALIGN(16) int8_t tensor_data12[96*1*1*16] = { 
  /* [0][0][][] */ -91,26,8,-18,-18,-61,-52,-22,25,-50,48,-74,63,-96,-10,-127, 
  /* [1][0][][] */ -92,47,-102,-82,-64,15,-6,39,-20,28,109,-28,41,127,18,40, 
  /* [2][0][][] */ -58,-20,-82,1,-16,-52,31,-56,-99,113,67,5,54,79,-59,127, 
  /* [3][0][][] */ -30,-54,6,-27,-67,-7,-60,-117,13,21,39,-47,-55,-20,-127,-49, 
  /* [4][0][][] */ 65,-2,-5,50,-47,3,-127,63,22,77,3,27,4,0,-51,-94, 
  /* [5][0][][] */ -114,35,-118,-18,28,-20,-37,-61,101,-29,8,-17,4,-127,-95,-94, 
  /* [6][0][][] */ 3,-11,-29,2,-46,52,16,-32,-20,-32,127,-21,1,9,-88,-11, 
  /* [7][0][][] */ 1,106,127,-68,57,54,-19,-35,12,76,-70,0,57,-29,13,45, 
  /* [8][0][][] */ -47,2,87,28,77,16,127,79,-56,-21,-122,-50,38,81,-94,-27, 
  /* [9][0][][] */ 51,22,88,29,-118,-53,-87,-117,87,36,127,22,-36,-101,58,-13, 
  /* [10][0][][] */ 2,-99,-8,-93,-127,69,36,14,-47,-68,5,30,-22,42,-125,22, 
  /* [11][0][][] */ 79,-45,-10,84,-75,-26,58,11,127,89,-49,55,4,-75,-44,91, 
  /* [12][0][][] */ -73,-76,127,-20,58,-39,30,76,95,-32,102,81,-36,8,-89,25, 
  /* [13][0][][] */ 12,-36,19,28,13,12,123,23,-118,-5,11,6,-34,96,127,-84, 
  /* [14][0][][] */ 119,-61,127,-23,64,46,73,45,42,65,60,54,54,-22,44,-69, 
  /* [15][0][][] */ 1,126,-10,-43,13,127,-66,44,-52,-30,-26,-7,-22,111,5,-33, 
  /* [16][0][][] */ -53,54,127,-21,29,77,17,-18,4,-1,-12,25,67,4,69,116, 
  /* [17][0][][] */ 1,127,67,-96,4,-37,-25,-68,-43,98,0,52,-91,11,106,-110, 
  /* [18][0][][] */ -93,-8,-79,-57,124,89,-30,-79,74,79,127,63,-17,115,-61,-4, 
  /* [19][0][][] */ 31,116,102,59,71,-32,-7,7,-67,127,47,104,67,81,-50,36, 
  /* [20][0][][] */ 100,-18,-13,42,-88,-9,-9,45,-48,-64,-127,-30,90,-20,20,-6, 
  /* [21][0][][] */ -113,-72,-3,106,-21,-18,-127,87,-36,37,41,-16,-63,48,-74,9, 
  /* [22][0][][] */ -4,8,-63,-29,127,8,-29,70,60,91,19,62,-7,19,-28,39, 
  /* [23][0][][] */ -61,6,1,14,37,50,94,65,2,127,-47,-20,2,5,-61,-19, 
  /* [24][0][][] */ 41,-99,74,7,127,39,96,-68,100,44,59,21,-92,64,-9,-27, 
  /* [25][0][][] */ 113,-56,73,41,17,-12,-41,90,127,-3,-56,2,101,-51,85,28, 
  /* [26][0][][] */ 47,41,119,120,61,-19,-79,-36,8,82,4,127,30,-91,14,-69, 
  /* [27][0][][] */ -53,19,-86,7,-34,59,16,-59,24,-65,111,29,31,-27,127,91, 
  /* [28][0][][] */ -17,44,-73,-127,34,-91,0,-79,-107,70,-37,25,-4,34,-14,80, 
  /* [29][0][][] */ 106,100,-80,28,34,87,-50,-40,63,40,-4,59,-127,15,-38,99, 
  /* [30][0][][] */ -30,78,-124,-71,66,-39,0,-18,-23,41,-26,1,22,46,-13,127, 
  /* [31][0][][] */ 27,-127,102,58,78,-92,-86,43,-32,-3,48,-16,-83,83,52,122, 
  /* [32][0][][] */ -47,55,-19,52,-83,62,31,66,25,-127,6,-88,18,35,4,63, 
  /* [33][0][][] */ -76,4,61,105,1,16,-45,15,-48,-68,12,-9,-28,-1,-3,127, 
  /* [34][0][][] */ -25,10,-89,-76,45,-2,3,70,25,-17,-5,-19,-60,-16,-42,127, 
  /* [35][0][][] */ 59,-14,21,-7,7,15,-63,-12,-19,-127,-57,-8,-10,-28,45,-14, 
  /* [36][0][][] */ 3,7,-127,-11,10,123,0,57,-7,18,19,34,6,12,-42,32, 
  /* [37][0][][] */ 50,8,48,-50,49,-127,42,-52,-103,71,-74,13,20,35,105,44, 
  /* [38][0][][] */ -45,127,33,-41,28,11,78,-83,-3,-8,-111,40,-61,-63,-93,10, 
  /* [39][0][][] */ 98,29,-127,-113,-32,-18,4,-65,42,-12,19,-17,67,-6,-102,-70, 
  /* [40][0][][] */ -25,25,-71,-66,-68,-4,11,-127,-15,7,17,-54,34,86,39,50, 
  /* [41][0][][] */ -37,-82,-8,127,3,-27,-73,-19,-31,-52,83,-69,-74,10,5,11, 
  /* [42][0][][] */ -18,61,-27,-127,20,22,12,-28,50,0,-41,4,72,-26,-27,24, 
  /* [43][0][][] */ 10,46,-1,6,127,27,5,18,12,46,-1,-82,-106,-52,-17,-15, 
  /* [44][0][][] */ 71,-21,14,36,-31,-9,11,29,38,-35,18,22,127,4,-61,-22, 
  /* [45][0][][] */ 32,-102,-65,52,-28,-114,4,31,28,-42,4,9,-103,127,43,-48, 
  /* [46][0][][] */ 4,-53,44,55,-5,-17,-60,48,43,-30,21,-31,21,85,58,127, 
  /* [47][0][][] */ -37,-80,1,83,9,-15,71,36,27,-90,-127,-28,31,-42,-74,30, 
  /* [48][0][][] */ -67,89,-6,-32,1,42,-14,-127,41,-20,52,-21,30,-102,-37,1, 
  /* [49][0][][] */ -46,1,49,-30,-7,4,127,118,-45,-44,-16,7,-42,31,-44,35, 
  /* [50][0][][] */ 67,10,-105,-1,31,-127,-42,9,-94,44,-65,-36,38,-101,-120,-24, 
  /* [51][0][][] */ -42,69,-24,118,-16,18,-40,-72,-26,-67,3,-48,-6,27,-29,127, 
  /* [52][0][][] */ -104,9,17,6,35,39,47,12,24,-73,-45,-37,-100,-69,-127,-4, 
  /* [53][0][][] */ -27,-55,-45,-127,-38,-28,-3,81,25,-74,-35,19,-48,16,42,85, 
  /* [54][0][][] */ -2,-57,10,-13,-55,45,50,-31,-10,-66,39,31,-19,-27,-127,27, 
  /* [55][0][][] */ -25,-35,-44,61,66,-14,40,79,-50,-42,-127,-36,73,-20,-27,38, 
  /* [56][0][][] */ 70,-8,-46,-26,-122,33,-127,-13,-34,-26,-22,7,92,-21,69,11, 
  /* [57][0][][] */ -62,7,22,-21,127,42,42,37,-18,53,-2,-16,-52,64,-109,-16, 
  /* [58][0][][] */ 21,-8,0,-25,48,0,-40,-46,50,-127,-55,13,-63,-50,-25,69, 
  /* [59][0][][] */ -83,-52,-12,-5,17,69,-95,-83,57,127,-113,29,-11,6,-13,16, 
  /* [60][0][][] */ 24,-49,-13,4,-127,-52,48,10,-14,30,-34,62,8,-46,34,55, 
  /* [61][0][][] */ 13,24,-86,-16,-60,-18,-127,-80,-2,11,44,108,65,-45,91,57, 
  /* [62][0][][] */ 25,-17,37,-45,-36,5,45,127,-64,118,16,77,26,33,62,90, 
  /* [63][0][][] */ 18,-127,-14,-15,-66,23,55,-31,-6,-27,-7,-17,-46,126,105,41, 
  /* [64][0][][] */ -18,1,-127,-69,11,31,62,-26,0,-74,51,1,58,-22,-65,89, 
  /* [65][0][][] */ -24,-34,42,44,29,-4,63,47,-42,-21,-127,-60,35,118,-41,11, 
  /* [66][0][][] */ -22,-124,-4,-81,-46,-127,50,-17,18,-70,12,108,-58,-62,-119,87, 
  /* [67][0][][] */ -45,-111,-63,-3,-81,116,-8,-127,-66,-35,-74,-101,12,-35,-87,55, 
  /* [68][0][][] */ 127,38,-5,-1,-82,22,-53,-53,-47,-68,-47,-3,46,-15,58,-64, 
  /* [69][0][][] */ 9,-9,23,-23,-4,-56,-33,48,-31,127,-34,12,2,45,64,-19, 
  /* [70][0][][] */ 71,-18,-36,61,-127,15,-2,-119,107,103,49,70,70,-53,-10,31, 
  /* [71][0][][] */ 110,-64,78,115,-122,-41,35,-3,127,21,-38,68,68,-73,42,-2, 
  /* [72][0][][] */ 7,-6,51,59,38,-17,-127,43,86,-7,49,26,-18,-71,-58,59, 
  /* [73][0][][] */ 46,18,63,-127,56,-67,-66,51,-24,90,-35,18,9,-82,9,-47, 
  /* [74][0][][] */ 100,14,30,55,-127,-21,59,1,-99,-64,28,-65,53,-65,17,41, 
  /* [75][0][][] */ 93,127,-104,25,77,62,-34,-34,-38,-24,62,78,-116,72,72,73, 
  /* [76][0][][] */ -72,-28,-7,-36,-58,-14,92,3,-43,17,91,65,-50,-127,-29,86, 
  /* [77][0][][] */ -45,127,-9,-14,-67,-64,27,47,19,-39,-3,44,-26,48,-12,62, 
  /* [78][0][][] */ 127,49,-52,6,-68,32,-120,-19,31,-35,-80,22,46,-125,-12,71, 
  /* [79][0][][] */ -45,-25,127,87,-10,-82,-45,-24,17,13,1,3,-50,104,-57,77, 
  /* [80][0][][] */ 62,124,64,-127,-38,10,65,-37,5,39,-34,60,74,-60,-4,-44, 
  /* [81][0][][] */ 42,-64,-8,-127,89,39,-16,113,68,22,-14,-48,1,19,-77,-53, 
  /* [82][0][][] */ 98,72,22,6,81,-101,20,66,-10,127,-34,11,-44,-17,50,-81, 
  /* [83][0][][] */ -63,79,15,42,100,46,112,122,37,58,-46,-34,-127,77,-114,-99, 
  /* [84][0][][] */ -19,-76,-18,82,3,-97,-90,43,-88,86,-61,15,-127,89,-12,-69, 
  /* [85][0][][] */ -124,67,-71,-33,-33,-68,-62,-8,-44,29,44,-112,-127,-78,-67,67, 
  /* [86][0][][] */ 6,75,94,107,37,-53,33,-2,-4,25,-62,-73,25,62,-127,-78, 
  /* [87][0][][] */ -18,69,127,-57,-124,-40,2,3,30,-41,3,68,-41,41,-8,-11, 
  /* [88][0][][] */ -55,-49,-127,45,32,59,30,53,-41,-84,-115,-111,121,3,20,57, 
  /* [89][0][][] */ 33,16,8,-115,10,-62,-39,53,127,-31,36,-100,-7,-41,44,-61, 
  /* [90][0][][] */ 14,85,25,27,-46,57,46,116,12,-64,-10,127,32,17,-53,85, 
  /* [91][0][][] */ -82,10,-4,69,79,36,-45,-64,-88,79,8,7,-127,-87,-40,-31, 
  /* [92][0][][] */ -27,65,-10,-3,-127,-22,-79,33,-27,53,90,69,-20,-24,47,21, 
  /* [93][0][][] */ 89,27,119,45,-127,-104,3,5,-2,-32,1,-54,30,-56,-14,-6, 
  /* [94][0][][] */ -28,-127,20,-115,17,18,-24,19,114,-28,-1,79,1,57,-69,51, 
  /* [95][0][][] */ -45,-68,-50,-24,102,105,-39,50,103,40,-84,64,-74,127,-104,27, 
};
const TfArray<96, float> quant12_scale = { 96, { 0.0017477014334872365, 0.001813913113437593, 0.0024729943834245205, 0.0026848958805203438, 0.0015709488652646542, 0.0014661612221971154, 0.0024903696030378342, 0.002957961056381464, 0.0017320162151008844, 0.0011679852614179254, 0.003032217500731349, 0.0019392967224121094, 0.0023282947950065136, 0.0019062937935814261, 0.0025287524331361055, 0.0022096084430813789, 0.0026101775001734495, 0.001288497936911881, 0.002517785644158721, 0.001959117827937007, 0.0026521657127887011, 0.0013062553480267525, 0.0020129559561610222, 0.0026325469370931387, 0.0018135868012905121, 0.0024120910093188286, 0.00080544030060991645, 0.0021276476327329874, 0.0026953704655170441, 0.0022325271274894476, 0.0017758042085915804, 0.0024874033406376839, 0.0014736691955476999, 0.0030963434837758541, 0.0017572648357599974, 0.0028615228366106749, 0.0037265662103891373, 0.0020633402746170759, 0.0026661662850528955, 0.0027733563911169767, 0.0023318359162658453, 0.0033427616581320763, 0.0032491146121174097, 0.00282662408426404, 0.0048336423933506012, 0.002423739992082119, 0.0032478594221174717, 0.0015977742150425911, 0.0020812111906707287, 0.0023313465062528849, 0.0020222542807459831, 0.003062177449464798, 0.0020154854282736778, 0.0021040684077888727, 0.0039167432114481926, 0.0021072784438729286, 0.0020462663378566504, 0.0023285676725208759, 0.0017566714668646455, 0.0027324738912284374, 0.0031520144548267126, 0.0012943902984261513, 0.0024363365955650806, 0.0019984089303761721, 0.0017091688932850957, 0.0013648929307237267, 0.0016138809733092785, 0.0025027075316756964, 0.0023060538806021214, 0.0032644681632518768, 0.0016466166125610471, 0.0022752222139388323, 0.002381268423050642, 0.0027259201742708683, 0.0024561525788158178, 0.0019926636014133692, 0.0025219693779945374, 0.0025416985154151917, 0.0021114661358296871, 0.0025442363694310188, 0.0026945280842483044, 0.0024529509246349335, 0.0019874919671565294, 0.001995540689677, 0.0020364343654364347, 0.0013671825872734189, 0.0020579241681843996, 0.0023557122331112623, 0.00072405836544930935, 0.0028435480780899525, 0.0037072999402880669, 0.002964244456961751, 0.00090250239009037614, 0.0031862736213952303, 0.0032717713620513678, 0.0021727804560214281, } };
const TfLiteAffineQuantization quant12 = { (TfLiteFloatArray*)&quant12_scale, (TfLiteIntArray*)&g0::quant5_zero, 0 };
const MODEL_SECTION(EI_MODEL_SECTION) ALIGN(16) int32_t tensor_data13[16] = { -30127, -5922, 3268, -7009, 16432, -15909, 25485, -732, 9764, -9924, 12455, 10154, -10843, -27729, 283, 6382, };
const TfArray<16, float> quant13_scale = { 16, { 7.586473657283932e-05, 5.3571900934912264e-05, 7.0918853452894837e-05, 7.3702132795006037e-05, 8.4051411249674857e-05, 0.00014452023606281728, 6.0353948356350884e-05, 7.6880678534507751e-05, 0.00012295841588638723, 0.00010533128079259768, 0.00012209020496811718, 7.4706593295559287e-05, 8.3264421846251935e-05, 8.6204228864517063e-05, 8.7382060883101076e-05, 8.3977072790730745e-05, } };
const TfLiteAffineQuantization quant13 = { (TfLiteFloatArray*)&quant13_scale, (TfLiteIntArray*)&g0::quant7_zero, 0 };
const MODEL_SECTION(EI_MODEL_SECTION) ALIGN(16) int8_t tensor_data14[16*1*1*96] = { 
  /* [0][0][][] */ 22,35,14,24,-12,-69,-13,-2,-24,-83,7,-15,57,-60,61,30,-77,-30,37,16,90,31,-76,5,-11,74,127,76,14,74,61,-23,-2,3,5,-18,42,20,-5,-10,103,13,37,-17,-4,4,-1,-43,39,-33,87,-12,-72,3,47,16,-5,-43,-4,28,-8,45,-58,-12,17,2,60,28,4,-20,25,39,14,37,9,38,60,-11,48,23,-20,40,49,42,-49,4,-12,64,26,9,-93,-8,13,18,112,83, 
  /* [1][0][][] */ 16,64,-51,-10,3,-36,79,-59,-62,-41,-49,-59,-6,-52,-14,-49,-45,-26,-28,-15,-20,-72,99,-47,-10,9,-3,56,-52,4,-52,12,-18,20,5,17,-6,56,-62,92,22,12,28,-41,47,-43,-26,42,-63,-8,51,-111,-38,56,55,46,32,21,-82,5,-46,20,-4,3,38,34,94,20,-45,-127,8,-5,35,65,-17,30,-37,-34,101,-37,39,-6,74,-58,-40,-44,-4,12,-7,-47,41,12,69,-33,-44,74, 
  /* [2][0][][] */ 12,-10,13,-16,85,50,-54,32,-73,33,7,-40,36,-11,14,36,23,-35,-127,-22,-16,-48,-25,33,-3,-13,-41,19,-23,-14,-26,57,-8,-30,-7,26,-39,33,-19,-18,58,8,8,45,22,59,-2,-16,-71,7,-22,14,-26,57,20,-65,31,10,65,34,-12,-19,-14,50,28,-15,-36,-12,3,-5,-26,-35,26,45,30,70,-42,-12,-21,-40,40,29,62,-33,-6,-56,-12,-45,-27,-32,-13,64,-20,-17,77,-44, 
  /* [3][0][][] */ 56,-50,-34,-126,8,-31,123,-32,2,127,-83,2,19,-13,-14,72,42,47,-29,9,-49,11,16,-2,-49,84,55,-6,-34,-7,-72,51,-7,-26,25,-14,-12,-70,-19,57,2,8,-32,13,62,-53,7,21,44,-36,21,-44,103,33,26,-12,8,-14,-15,-30,-46,31,69,-12,-42,-37,127,-34,-60,-27,-68,34,13,-70,-9,-62,19,-56,127,-11,-19,-53,-41,-65,-30,-51,69,79,-71,38,-53,-27,-1,-95,-14,34, 
  /* [4][0][][] */ -11,60,40,6,-25,25,-32,-15,22,-38,-12,-23,31,35,-26,29,-4,-38,-35,-80,18,-44,-78,3,-49,-34,-19,28,-44,127,-51,-4,8,-30,-3,-27,53,43,-29,-8,15,1,3,-40,-40,-1,54,-30,13,-29,-68,-3,-57,11,31,7,-4,47,-43,19,-53,-65,-21,7,45,11,-51,-4,-21,-4,-4,-58,-22,55,29,50,-26,7,-65,36,-5,63,28,-55,34,-75,-21,-60,-53,-41,-38,-14,-11,5,38,-18, 
  /* [5][0][][] */ -10,-19,41,-20,-13,-24,-6,-11,47,26,-10,16,-29,-18,19,-20,-9,-3,-56,-30,-23,19,-8,24,13,-53,64,-19,-11,38,6,78,-9,-92,24,5,-40,-27,-33,-4,-36,1,-11,11,6,19,-59,30,-24,20,50,-12,36,-85,0,28,-24,-42,3,-29,33,41,26,48,-35,5,105,-14,-13,-40,17,24,-9,31,33,2,-2,-10,127,46,-24,-8,-36,46,50,80,7,94,-8,-32,-11,7,19,-20,-33,11, 
  /* [6][0][][] */ 35,-67,63,-4,-30,112,-38,-99,-16,-71,-91,42,12,8,-42,85,17,21,6,-46,-91,-35,-77,-65,1,-54,-3,66,-127,53,-13,-24,40,67,-24,-5,-18,-29,29,-23,-56,38,32,-41,11,34,-87,-29,39,-4,-78,-97,64,8,-47,-10,12,-17,19,-27,-17,-46,26,-7,40,-83,-54,-43,-112,2,-28,-56,-32,-88,7,-96,85,0,-67,46,-43,66,19,-83,51,-51,-11,5,-55,57,-66,79,22,-53,65,-91, 
  /* [7][0][][] */ 3,-20,-62,41,-12,5,31,-6,-98,-10,56,33,7,-57,-11,-23,0,-28,-8,3,-56,-31,-54,-25,45,43,-3,66,12,34,-3,2,-36,-127,19,108,-31,24,-34,7,-17,-14,-13,-63,24,55,63,55,-15,37,-44,1,17,-45,28,-62,-16,18,-57,-3,56,3,-2,-41,55,-65,100,-12,-63,-44,50,9,-19,-23,-104,-20,43,-43,77,-33,-5,-17,-49,-38,28,-2,-76,38,-12,10,8,27,30,-14,73,-18, 
  /* [8][0][][] */ -11,-68,4,3,-19,-20,25,-1,10,-2,37,46,17,25,-40,-18,65,21,22,8,-3,-62,-21,-19,-27,-33,63,8,-24,38,19,-16,-13,9,12,-14,-51,-31,23,-33,14,47,34,-50,-1,-24,10,-11,31,-1,42,7,-3,13,-36,18,-9,118,-73,-10,-24,-53,-61,-19,-79,-21,-11,21,-19,21,28,-4,-29,-127,50,-102,2,22,-42,35,-43,-1,-7,69,47,-51,-33,52,-23,72,9,-6,-26,5,4,-69, 
  /* [9][0][][] */ -25,-19,-19,30,10,21,-2,53,-40,-1,52,49,-21,45,23,-45,-11,28,-28,-37,-1,44,-16,14,-28,26,1,14,45,-8,11,3,-13,-7,9,62,-12,-8,19,0,-18,-28,12,9,7,54,-6,37,-31,2,-17,31,127,20,-13,-19,17,-16,23,23,-29,14,86,12,19,25,56,6,20,-12,-15,31,14,-118,-36,-110,-19,-11,27,-5,-4,27,16,-36,39,2,-51,-6,-11,110,33,33,43,35,-14,34, 
  /* [10][0][][] */ 21,55,0,2,-3,12,-47,-9,48,2,-25,15,24,-5,0,-53,-40,4,22,-9,23,-11,-28,-37,6,-14,-95,39,-10,48,-5,6,20,23,-18,5,23,-7,1,-1,31,-15,58,-48,-33,6,3,12,33,-8,7,-30,-22,2,2,24,-11,-1,-21,-4,-12,-34,-1,18,-6,-15,-81,-30,-46,-8,39,-18,-4,31,31,19,50,-14,-81,9,-13,36,10,-17,0,13,-62,-127,-23,23,14,25,48,-29,14,25, 
  /* [11][0][][] */ 26,-39,5,13,-57,13,23,15,76,-22,-32,-38,33,16,14,-12,1,39,19,-56,10,50,8,-13,18,19,61,11,34,-58,-17,31,10,119,-94,28,33,-19,53,-2,-52,48,-26,10,-58,26,-9,-22,41,-38,-31,-5,-9,15,-76,79,-27,2,-25,-4,21,9,1,-85,0,-59,-127,-81,-16,-52,-103,52,56,19,-20,8,39,75,-120,-23,-34,3,-15,22,-30,-10,62,76,15,-55,5,19,-53,15,100,27, 
  /* [12][0][][] */ 3,32,-25,-16,3,-37,17,22,69,-28,20,14,-13,-6,-12,6,26,-49,-22,24,16,65,19,63,-37,-39,-127,-4,68,-28,29,7,-29,-80,71,-2,51,-6,-11,11,12,-50,28,38,44,12,32,0,-78,8,-46,83,84,-24,26,-66,18,30,-39,-22,17,73,80,19,-2,-8,18,34,115,22,40,29,0,-14,-11,-12,-40,-36,39,-58,27,-45,35,-16,11,22,8,-104,-5,40,-49,25,24,75,14,39, 
  /* [13][0][][] */ -14,20,-78,23,40,28,-18,6,14,63,-40,27,-56,-34,63,-45,8,48,54,16,-42,-52,-8,1,53,40,-19,19,18,39,47,-32,-10,56,-15,40,15,-29,-54,-41,4,-14,0,26,50,46,-37,37,-32,40,7,0,-22,-35,59,35,3,-58,15,-8,38,13,-4,-21,14,93,127,29,39,19,-42,-27,40,63,-87,55,24,-86,124,-43,1,-45,45,-17,24,43,-37,-10,-9,-29,7,40,29,20,54,52, 
  /* [14][0][][] */ -25,72,24,37,-61,-73,21,40,-88,-19,78,27,-101,-5,86,-22,-38,14,-66,34,-32,32,-99,30,-60,-1,-61,-125,20,-2,22,80,-73,15,1,13,-4,-69,-23,-43,37,-50,55,-17,-7,77,-60,55,-7,-36,91,19,-4,26,-31,6,-45,32,7,69,47,87,-4,61,26,-56,-19,-72,55,42,106,32,-63,44,5,13,36,8,12,16,-63,122,10,-127,107,4,-3,5,-122,-8,-28,-15,-37,8,40,45, 
  /* [15][0][][] */ 70,-46,21,18,43,-3,-3,-33,28,24,-72,-7,60,71,-10,-20,22,-13,-76,49,4,-44,30,36,72,-33,87,22,37,-28,-40,49,61,39,-5,-79,46,76,65,46,90,44,-29,3,-35,-127,47,-43,-41,-8,-10,-5,-5,-56,-29,72,-11,16,9,11,9,-68,-44,13,33,39,-68,28,4,-40,-12,-4,-9,-110,-52,-96,-27,15,-112,34,81,-48,43,23,-42,-13,-12,-13,28,81,7,-60,-35,-47,36,-58, 
};
const TfArray<16, float> quant14_scale = { 16, { 0.0032242513261735439, 0.0022768056951463223, 0.0030140511225908995, 0.0031323407310992479, 0.0035721850581467152, 0.0061421100981533527, 0.0025650428142398596, 0.0032674288377165794, 0.0052257324568927288, 0.0044765793718397617, 0.0051888334564864635, 0.0031750302296131849, 0.0035387380048632622, 0.0036636795848608017, 0.0037137374747544527, 0.0035690255463123322, } };
const TfLiteAffineQuantization quant14 = { (TfLiteFloatArray*)&quant14_scale, (TfLiteIntArray*)&g0::quant7_zero, 0 };
const MODEL_SECTION(EI_MODEL_SECTION) ALIGN(16) int32_t tensor_data15[96] = { 12199, -352, -6340, 6900, -37, -2189, -429, -1099, 3145, -3342, 1164, -1203, 11616, -4365, -3088, -8353, 631, -62, -8969, 4313, -166, -635, -5658, -2574, 6, 9010, -11228, -5174, 2833, -2906, -579, -2642, 17466, 205, -2383, -2380, 135, 11367, 6892, 4229, -1291, 5281, -927, 6167, 1102, -1063, 11374, 3228, -5693, -522, -1994, 1849, 292, -3214, -3778, 817, 2045, 3110, -695, 3499, -1780, 4258, -522, 8780, 12838, -324, 14730, 8633, -1707, -586, 10991, -785, -377, -365, -3922, -1578, 16720, 16405, 8455, 8236, 10746, -1567, 7908, 6275, -417, -1909, 13458, -8472, 12883, -1347, -8706, -3680, 92, 234, 18739, -355, };
const TfArray<96, float> quant15_scale = { 96, { 9.2622671218123287e-05, 0.00031161698279902339, 0.0001548428408568725, 0.00016293230873998255, 0.00028085938538424671, 0.00044763405458070338, 0.00012168252578703687, 0.00027382798725739121, 0.0004165810823906213, 0.00029312586411833763, 0.00029998135869391263, 0.00021503088646568358, 9.0151552285533398e-05, 0.00013722089352086186, 0.00026244897162541747, 0.00011712627747328952, 0.00033707829425111413, 0.00036390731111168861, 0.00015217703185044229, 0.00024835942895151675, 0.00035767868394032121, 0.00026220857398584485, 9.9971301096957177e-05, 0.00021524252952076495, 0.0016404112102463841, 0.00013922786456532776, 0.00019729747145902365, 0.000156068941578269, 0.00027583667542785406, 0.00018964747141581029, 0.00016764274914748967, 0.0002909106551669538, 6.9452347815968096e-05, 0.00046031770762056112, 0.00013743029558099806, 0.0002190137020079419, 0.00047849054681137204, 8.5105391917750239e-05, 0.00017092775669880211, 0.00017256521095987409, 0.00070260930806398392, 0.00020601262804120779, 0.00022585333499591798, 0.00015882238221820444, 0.00015493721002712846, 0.00030611382680945098, 8.931552292779088e-05, 0.00026940109091810882, 0.00016855094872880727, 0.00062109436839818954, 0.00038659581332467496, 0.00022259150864556432, 0.00015805274597369134, 0.00029194931266829371, 0.00031120397034101188, 0.00037041190080344677, 0.00018091291713062674, 0.00046724098501726985, 0.00042201735777780414, 0.00022672713384963572, 0.00029221412842161953, 0.00030829090974293649, 0.00017829335411079228, 0.00010480757191544399, 0.00016142259119078517, 0.00045205000787973404, 0.00010578624642221257, 0.00013956031762063503, 0.00033349549630656838, 0.00039301172364503145, 0.00012370874173939228, 0.00034360474091954529, 0.00057922443374991417, 0.00017849064897745848, 0.0001659661065787077, 0.00020746223162859678, 7.354684203164652e-05, 0.00012441520811989903, 0.00013500053319148719, 0.00018143416673410684, 0.00011249243834754452, 0.00028454125276766717, 0.00013623431732412428, 0.00037403817987069488, 0.00010714072413975373, 0.00029109950992278755, 9.7574265964794904e-05, 0.00019916974997613579, 9.8259981314186007e-05, 0.00023084491840563715, 9.0382171038072556e-05, 0.00027258877526037395, 0.00032447339617647231, 0.00021784674027003348, 8.1168123870156705e-05, 0.00033893753425218165, } };
const TfLiteAffineQuantization quant15 = { (TfLiteFloatArray*)&quant15_scale, (TfLiteIntArray*)&g0::quant5_zero, 0 };
const MODEL_SECTION(EI_MODEL_SECTION) ALIGN(16) int8_t tensor_data16[1*3*3*96] = { 
  /* [0][0][][] */ -82,5,7,-26,94,7,37,-22,-13,-11,-19,-19,-66,14,-1,-37,-19,3,0,-40,-22,45,27,47,1,-4,-34,9,4,-1,29,16,-3,5,-31,-32,-9,-23,-73,14,8,-33,51,-32,-41,59,-65,-20,-21,13,-13,36,-77,-2,60,-5,4,-10,7,-32,10,-32,12,-88,-18,-27,-37,-10,-15,35,-30,5,18,10,16,11,5,-53,127,-45,-99,16,-112,-32,-28,-7,-6,22,-66,-16,17,-19,-6,28,-45,1, 6,21,31,-98,-24,23,127,-44,-13,-3,-44,1,-127,7,-65,94,-11,74,61,-49,-33,127,127,127,27,0,77,59,127,24,127,-13,-85,-13,-127,-38,-34,-103,127,-40,-19,-127,-4,-35,54,-30,-86,1,39,12,26,127,-99,29,-63,9,-73,-10,-5,10,2,-127,-123,-80,-69,-5,-1,-108,4,10,-84,113,-127,2,27,-14,-127,-110,6,-127,-127,3,16,-48,127,91,-82,44,-127,6,41,-5,13,127,-69,-93, -71,8,-2,-25,76,3,61,-33,-33,0,-19,-5,-32,12,9,-41,-16,-6,-26,-43,-32,25,20,36,-2,2,29,-4,1,-3,14,23,0,5,-25,63,-11,-36,-71,49,3,40,49,1,-33,-16,-91,-31,-5,8,-11,28,8,-16,34,0,60,-16,12,-39,0,-25,-66,-53,-34,-34,127,-31,-5,24,-16,19,30,31,32,17,-11,-11,-26,-29,-59,11,-127,-29,15,-27,2,-34,-102,-27,13,43,9,29,-31,5, 
  /* [0][1][][] */ -98,17,50,-54,27,110,-43,-13,-1,-25,-30,-19,-118,31,18,102,-15,36,107,17,17,-4,49,-14,34,5,45,16,-20,10,5,-14,-127,-14,78,-18,-4,-102,-73,-127,-16,-35,106,-49,-90,127,-88,-90,76,53,6,-53,-116,81,69,-22,5,-33,37,-20,20,-21,98,-67,-44,18,-23,-47,-13,5,-127,9,68,127,8,-63,-121,-119,-51,-31,-9,9,-22,-45,43,31,-127,70,-117,127,89,-63,127,-5,-51,-7, 107,127,127,127,-127,-127,104,-38,127,127,-77,-71,-78,127,-15,113,127,-127,127,127,127,-76,61,-103,-127,-127,127,127,-123,127,-23,127,-65,127,106,-77,127,60,-1,-9,127,2,-127,-115,127,-28,127,118,127,-127,127,-112,112,127,-127,127,-127,127,-127,127,-88,95,94,-127,127,127,-15,127,-79,-127,49,-127,32,121,127,78,-9,-127,90,-76,29,127,93,127,102,84,-115,127,-18,55,18,-10,-110,-14,-127,-33, -127,-17,41,-45,12,61,-52,7,-34,-25,-8,127,-95,30,28,86,-27,44,58,9,2,-14,17,-12,30,9,44,6,-24,5,28,-13,-78,-31,115,127,-1,-95,-103,-30,-25,18,50,-49,-84,-64,-92,-127,58,60,-18,-27,127,23,102,-35,68,-28,56,-45,-2,-44,-127,51,-96,-5,-52,-72,-20,11,-93,-4,49,-87,15,127,-103,-81,-45,39,-53,-4,-46,-60,-2,21,-91,46,-75,-74,127,127,-54,-29,-50,-9, 
  /* [0][2][][] */ -51,-48,4,-13,17,10,-20,21,-15,14,33,-31,66,13,-6,-22,-7,1,-16,-44,-13,-26,10,3,14,-21,-1,3,-13,-3,-30,11,-42,-7,25,-14,2,-47,-30,-1,-20,-22,8,3,31,24,-30,2,-45,13,-25,-35,-6,-9,41,-18,-5,-28,17,-29,10,15,-1,2,-45,-21,111,33,27,26,-39,-9,13,-17,-28,-22,15,10,-21,-13,-20,2,-51,-14,-18,-8,16,2,-36,12,-17,-12,-19,-15,6,-7, -47,-72,47,-74,-39,8,50,127,-58,71,127,-32,-68,39,127,127,-18,-31,87,-80,-17,-52,123,40,29,-22,52,17,-20,6,-98,-31,-77,-37,-92,16,-83,-127,45,-22,-18,-95,-61,127,41,-25,-92,-5,16,2,-12,-20,60,35,-45,-34,-56,-58,55,-66,127,4,98,-30,-115,-47,-24,-48,127,27,-51,8,42,-29,12,-16,-4,-18,3,66,-81,-32,-64,-51,25,-127,-20,29,1,6,34,6,21,-98,-60,127, -48,-8,5,15,19,-1,-1,18,-23,-3,14,35,80,3,2,-25,-15,14,3,-55,-22,-15,21,16,8,-17,-10,-6,-26,1,-34,10,-34,-4,34,19,-1,-64,-45,40,-32,-3,-13,4,32,-12,-78,13,-41,13,-26,-24,-9,-26,40,-13,37,-14,25,-24,4,8,3,48,-39,-26,-24,26,30,11,-34,-9,-17,-44,-13,0,-5,38,75,12,-36,-10,-25,-1,-21,-13,23,14,-51,0,-22,22,11,-22,10,-11, 
};
const TfArray<96, float> quant16_scale = { 96, { 0.003936463501304388, 0.013243721798062325, 0.0065808207727968693, 0.0069246231578290462, 0.011936523951590061, 0.019024446606636047, 0.0051715071313083172, 0.011637688614428043, 0.017704695463180542, 0.012457849457859993, 0.012749207206070423, 0.0091388123109936714, 0.0038314410485327244, 0.0058318879455327988, 0.011154080741107464, 0.0049778665415942669, 0.014325827360153198, 0.015466060489416122, 0.0064675235189497471, 0.010555275715887547, 0.015201344154775143, 0.011143864132463932, 0.0042487801983952522, 0.0091478070244193077, 0.069717474281787872, 0.005917184054851532, 0.0083851423114538193, 0.0066329296678304672, 0.011723058298230171, 0.0080600176006555557, 0.007124816533178091, 0.012363702990114689, 0.0029517246875911951, 0.019563501700758934, 0.0058407876640558243, 0.0093080820515751839, 0.02033584751188755, 0.0036169791128486395, 0.0072644297033548355, 0.0073340213857591152, 0.029860895127058029, 0.008755536749958992, 0.009598766453564167, 0.0067499512806534767, 0.0065848315134644508, 0.01300983689725399, 0.003795909695327282, 0.011449546553194523, 0.0071634151972830296, 0.026396511122584343, 0.016430322080850601, 0.009460139088332653, 0.0067172413691878319, 0.012407845817506313, 0.013226168230175972, 0.015742504969239235, 0.0076887989416718483, 0.019857741892337799, 0.01793573796749115, 0.0096359029412269592, 0.012419099919497967, 0.013102362863719463, 0.0075774672441184521, 0.0044543216936290264, 0.0068604596890509129, 0.019212124869227409, 0.0044959154911339283, 0.0059313136152923107, 0.014173557981848717, 0.016702998429536819, 0.0052576214075088501, 0.014603201299905777, 0.024617038667201996, 0.0075858524069190025, 0.0070535591803491116, 0.0088171446695923805, 0.0031257406808435917, 0.0052876463159918785, 0.00573752261698246, 0.0077109518460929394, 0.0047809286043047905, 0.012093002907931805, 0.005789958406239748, 0.015896622091531754, 0.004553480539470911, 0.012371729128062725, 0.0041469060815870762, 0.0084647145122289658, 0.0041760490275919437, 0.0098109086975455284, 0.0038412422873079777, 0.011585022322833538, 0.013790118508040905, 0.0092584863305091858, 0.0034496451262384653, 0.014404844492673874, } };
const TfLiteAffineQuantization quant16 = { (TfLiteFloatArray*)&quant16_scale, (TfLiteIntArray*)&g0::quant5_zero, 3 };
const MODEL_SECTION(EI_MODEL_SECTION) ALIGN(16) int32_t tensor_data17[96] = { 1370, 4902, 565, 3077, 5334, 12679, 99, 1786, 11715, -1611, 17504, 3552, 1958, 352, 5240, 246, 1943, 4728, -642, 13127, 1106, 8926, -1326, 2446, -8727, 1504, 2078, 2293, 4854, 1627, 4340, 3892, 1521, 10115, 4093, 4859, 6229, 2175, 6550, 2603, 12759, 1513, 3269, 2247, 3573, 9854, 5999, 6033, 1248, -1047, 3459, 9262, 3315, -3189, 12012, 287, 2102, 9639, 506, 1464, 3101, 13212, 4153, 20, 18227, 11225, 1585, 3450, 6107, 4858, 2644, 1878, -6063, 3521, 1316, 1912, 126, 10209, 3902, 8273, 2372, 1762, 2794, 18055, -37, 7697, 5143, 1823, -563, 2355, 2302, 9198, 2964, 2543, 5072, 6710, };
const TfArray<96, float> quant17_scale = { 96, { 0.00026773969875648618, 0.00012906156189274043, 0.00026895676273852587, 0.00013630812463816255, 0.00012485327897593379, 7.2763927164487541e-05, 0.00025521949282847345, 0.00018684244423639029, 7.4325325840618461e-05, 0.00011512079800013453, 5.2476363634923473e-05, 0.00013852804841008037, 0.00014409815776161849, 0.00051679147873073816, 0.00010931762517429888, 0.00014653780090156943, 0.00025896925944834948, 0.00013747788034379482, 0.00014568099868483841, 6.3803432567510754e-05, 0.00022585371334571391, 7.5738666055258363e-05, 0.00018295731570106, 0.00012086138303857297, 8.1278019933961332e-05, 0.00011501384142320603, 0.00022777661797590554, 0.00018047906633000821, 0.00016798733850009739, 0.00015690906730014831, 0.00014101881242822856, 0.00014980578271206468, 0.00023840949870646, 8.0400750448461622e-05, 0.00014840264338999987, 0.00012508247164078057, 9.8273696494288743e-05, 0.00016722912550903857, 7.9800716775935143e-05, 0.00014617235865443945, 6.943845801288262e-05, 0.00020229117944836617, 0.00010792697867145762, 0.00010428997484268621, 9.27762157516554e-05, 8.3886385255027562e-05, 0.00010448326065670699, 0.00013635015056934208, 0.00023979168327059597, 0.00019767654885072261, 0.00014113505312707275, 8.4218263509683311e-05, 0.00015913607785478234, 0.00014519125397782773, 6.5307052864227444e-05, 0.00025680483668111265, 0.00017127326282206923, 9.8474833066575229e-05, 0.00015923882892820984, 0.0001906879770103842, 0.0001291885128011927, 6.9122383138164878e-05, 0.00016756434342823923, 0.00018045150500256568, 4.8337995394831523e-05, 7.322365854633972e-05, 0.00024601881159469485, 0.00016300787683576345, 0.00012090084055671468, 0.00010939264029730111, 0.00019311050709802657, 0.00011241707397857681, 9.8031894594896585e-05, 0.00018137127335648984, 0.00022583812824450433, 0.00028262162231840193, 0.00017714552814140916, 8.7861924839671701e-05, 0.00015583656204398721, 0.00010221023694612086, 0.00019673597125802189, 0.00011889194865943864, 0.00018075181287713349, 5.1609396905405447e-05, 0.00015779350360389799, 8.5879823018331081e-05, 0.0001301851007156074, 0.00024501982261426747, 0.00021744561672676355, 0.00024786728317849338, 9.9396173027344048e-05, 9.3150178145151585e-05, 0.00019228161545470357, 0.00014695101708639413, 0.00011506533337524161, 9.2721362307202071e-05, } };
const TfLiteAffineQuantization quant17 = { (TfLiteFloatArray*)&quant17_scale, (TfLiteIntArray*)&g0::quant5_zero, 0 };
const MODEL_SECTION(EI_MODEL_SECTION) ALIGN(16) int8_t tensor_data18[96*1*1*16] = { 
  /* [0][0][][] */ 56,15,11,64,-127,-38,89,50,63,97,-24,43,12,-3,44,75, 
  /* [1][0][][] */ -19,0,-72,13,127,106,16,-10,-52,13,-83,24,-20,69,-39,-8, 
  /* [2][0][][] */ -55,67,68,2,67,85,3,42,34,-9,44,-12,44,-127,-20,10, 
  /* [3][0][][] */ 127,-33,23,3,51,42,-5,6,35,42,-66,-33,-32,59,-45,69, 
  /* [4][0][][] */ -87,-6,-7,35,-127,-17,-116,-31,4,63,-7,-106,-75,35,-94,125, 
  /* [5][0][][] */ -84,-3,26,15,127,23,-1,25,-28,33,-18,-13,-96,40,-90,-45, 
  /* [6][0][][] */ -127,21,-36,26,-2,-65,65,15,-17,-22,-55,27,16,-5,-45,9, 
  /* [7][0][][] */ -30,73,32,-93,59,38,127,34,32,-17,-10,57,68,36,-35,-12, 
  /* [8][0][][] */ -26,-3,-52,82,-56,71,-71,-60,50,-42,112,46,127,92,-93,-3, 
  /* [9][0][][] */ -6,-127,-17,100,-53,-86,-26,51,75,75,30,101,-99,29,-6,-68, 
  /* [10][0][][] */ -61,-25,-120,35,-127,92,24,-78,42,-47,81,-6,13,102,-77,25, 
  /* [11][0][][] */ -63,-106,-41,35,-17,90,9,3,15,20,50,-79,-21,127,-95,117, 
  /* [12][0][][] */ -18,-83,-78,75,-111,-127,6,48,88,77,-18,117,-9,-67,-3,-18, 
  /* [13][0][][] */ -79,-24,-44,2,-18,-3,33,29,-20,127,-7,-17,37,32,18,-7, 
  /* [14][0][][] */ -127,-19,-33,-41,-29,75,-20,-70,93,-70,75,6,42,-30,-71,-78, 
  /* [15][0][][] */ 0,-127,87,-40,-44,-33,8,61,14,-50,-92,-39,88,-41,-23,-42, 
  /* [16][0][][] */ -4,-24,36,-20,43,18,-37,-24,59,-127,57,-17,-3,12,-92,-106, 
  /* [17][0][][] */ -46,3,21,-68,12,7,-39,9,100,-68,30,59,101,-66,-32,-127, 
  /* [18][0][][] */ 57,22,-60,-89,-33,-43,81,-65,3,44,19,95,2,68,3,-127, 
  /* [19][0][][] */ -62,6,-28,-93,-76,61,-2,-51,1,-32,20,-127,-10,-19,-63,1, 
  /* [20][0][][] */ 9,65,68,-70,69,2,-47,94,-107,-127,34,-85,-29,115,-38,-11, 
  /* [21][0][][] */ 5,-106,-108,20,115,26,76,127,-85,-86,-46,52,105,-127,-21,24, 
  /* [22][0][][] */ 74,-13,71,6,-10,6,76,32,23,104,35,28,12,16,127,1, 
  /* [23][0][][] */ -127,-87,-10,40,39,31,50,28,-1,-17,-32,-77,-5,64,48,88, 
  /* [24][0][][] */ 43,-37,21,67,24,-85,23,-40,43,108,-127,93,-19,-44,104,-84, 
  /* [25][0][][] */ 114,-68,95,127,32,14,-3,57,-106,66,46,-56,-9,14,65,-14, 
  /* [26][0][][] */ -27,25,6,41,-48,111,-16,43,-58,-31,-79,33,0,18,38,-127, 
  /* [27][0][][] */ 44,0,-11,-43,-41,0,-94,13,-98,-23,-78,-57,-86,43,-30,127, 
  /* [28][0][][] */ -55,9,-4,7,20,-18,-127,3,-21,-30,3,-3,8,-40,-31,-3, 
  /* [29][0][][] */ -17,-109,-28,99,-28,0,109,6,90,53,-127,45,13,-40,-57,75, 
  /* [30][0][][] */ 52,-66,-73,17,-127,38,47,-38,2,3,-7,-35,-7,45,-4,92, 
  /* [31][0][][] */ -127,-15,22,76,-38,2,-28,-5,-26,-52,8,-30,-38,-44,-39,57, 
  /* [32][0][][] */ -127,-91,-72,-6,-96,-39,-1,-28,112,46,-58,-73,51,52,46,0, 
  /* [33][0][][] */ -14,4,-107,46,-127,-101,52,-11,-119,7,-69,-64,-16,122,66,82, 
  /* [34][0][][] */ 62,98,36,76,-94,-68,28,14,22,-127,-5,38,-57,-37,-12,74, 
  /* [35][0][][] */ 61,24,-106,-14,-127,28,94,-61,53,79,-8,-37,7,105,49,99, 
  /* [36][0][][] */ 2,1,-53,58,127,-30,36,76,-74,15,-83,-77,15,-32,16,29, 
  /* [37][0][][] */ -116,33,-5,-72,44,-85,-46,-40,-2,-21,-21,55,62,-85,16,-127, 
  /* [38][0][][] */ 54,108,15,-44,-125,-63,-127,-76,-44,-100,59,32,-77,-88,89,5, 
  /* [39][0][][] */ 10,-50,-8,80,-8,94,85,-44,-20,38,40,-19,-19,104,83,127, 
  /* [40][0][][] */ 121,26,78,79,-29,-44,16,1,-47,54,-28,-10,-10,-17,127,4, 
  /* [41][0][][] */ -23,-14,10,48,-105,127,-7,50,-40,29,-98,22,12,22,52,-126, 
  /* [42][0][][] */ 13,-109,35,1,127,11,32,8,5,-76,-101,-28,-21,1,-2,23, 
  /* [43][0][][] */ -26,-80,-27,13,107,-16,-53,83,-43,-32,-127,-75,87,-49,-41,34, 
  /* [44][0][][] */ -58,-67,-67,-111,26,72,45,32,-47,-121,-46,96,-80,47,61,127, 
  /* [45][0][][] */ 13,-47,-76,20,-127,56,-50,-97,69,-32,58,-46,-3,36,-24,45, 
  /* [46][0][][] */ 41,-83,-21,8,72,-87,-25,84,12,-45,50,80,-44,-50,77,-127, 
  /* [47][0][][] */ -67,-51,-10,75,-2,-5,49,51,-17,127,64,98,-49,54,-25,78, 
  /* [48][0][][] */ 55,-27,-71,-68,52,-64,12,54,41,-72,-21,8,-44,11,-44,-127, 
  /* [49][0][][] */ 62,45,21,47,-23,-53,37,60,-20,127,-29,38,-43,-24,84,79, 
  /* [50][0][][] */ 3,-6,25,0,-127,-21,-9,-54,68,32,22,70,-25,-55,5,-13, 
  /* [51][0][][] */ 23,-20,-24,-127,-20,119,40,-89,-4,16,21,-72,94,71,-35,19, 
  /* [52][0][][] */ 22,-35,11,-105,101,-127,-2,-60,41,10,125,-53,46,26,-38,105, 
  /* [53][0][][] */ -65,-59,12,-16,-43,-127,-11,-109,-17,71,-102,81,-34,-21,17,-78, 
  /* [54][0][][] */ 69,86,40,15,-127,-31,-86,-115,-12,1,78,50,-84,-16,78,19, 
  /* [55][0][][] */ 22,15,-13,65,-38,7,35,-14,4,127,13,51,9,17,4,23, 
  /* [56][0][][] */ 61,-90,-57,95,-49,32,-8,45,127,22,57,50,-42,-13,32,71, 
  /* [57][0][][] */ 7,27,55,-102,51,17,-12,5,62,-65,22,127,41,0,78,-19, 
  /* [58][0][][] */ 65,-71,-3,-64,17,30,-4,114,75,93,22,68,60,36,127,-8, 
  /* [59][0][][] */ -58,15,22,-52,15,-63,14,-13,-3,14,-127,-101,-105,-66,59,-4, 
  /* [60][0][][] */ 61,-49,30,30,24,-10,27,-31,49,127,-19,94,-8,-21,-20,-39, 
  /* [61][0][][] */ 68,55,-7,-29,-101,-127,-22,-44,-45,-21,-12,-26,-71,-88,113,73, 
  /* [62][0][][] */ -26,65,-37,29,-64,127,-29,37,-55,-5,-45,35,-23,22,61,-83, 
  /* [63][0][][] */ 21,1,-89,-127,-17,-66,70,-6,-29,-92,-39,19,-51,59,57,-23, 
  /* [64][0][][] */ -41,15,16,-53,48,-53,74,71,-127,-39,-112,-70,0,61,47,66, 
  /* [65][0][][] */ -64,1,-71,-41,47,53,-30,-67,-127,-62,15,-13,-97,80,-49,56, 
  /* [66][0][][] */ -10,59,-13,42,-54,127,-30,29,-55,13,-20,58,-30,64,66,-82, 
  /* [67][0][][] */ 0,-27,-38,-32,29,-65,73,-117,-20,26,0,127,-63,0,-33,-99, 
  /* [68][0][][] */ 4,-127,-5,65,-18,-2,27,110,62,20,41,-3,-68,0,4,-16, 
  /* [69][0][][] */ 33,44,61,-76,57,15,-25,48,50,81,25,50,79,-65,3,-127, 
  /* [70][0][][] */ 45,22,34,-29,102,12,-93,-55,-127,-88,-3,42,-9,68,-83,3, 
  /* [71][0][][] */ -11,-79,27,-26,77,-8,27,42,-60,74,-127,-35,2,74,-38,35, 
  /* [72][0][][] */ 8,-12,47,40,-38,-23,-119,-69,7,56,-35,46,7,101,-127,-19, 
  /* [73][0][][] */ -4,-47,-10,-37,48,-100,29,-52,81,78,79,-27,39,-32,-78,127, 
  /* [74][0][][] */ -11,-6,-11,99,-71,-9,97,32,62,66,21,106,127,57,-63,18, 
  /* [75][0][][] */ -20,43,-25,35,-44,127,-23,6,-25,27,-31,31,-9,34,27,-62, 
  /* [76][0][][] */ -66,99,-51,43,-127,-15,-9,25,56,45,-31,-29,62,-50,-113,38, 
  /* [77][0][][] */ 109,75,-85,127,89,74,57,29,57,14,76,-44,62,28,53,14, 
  /* [78][0][][] */ 25,-37,5,-63,56,-120,20,-48,65,46,127,-11,-1,-13,-22,106, 
  /* [79][0][][] */ -36,63,2,31,-15,-44,-42,-17,-127,-5,56,2,100,31,-69,-41, 
  /* [80][0][][] */ -63,19,101,15,65,34,-29,-127,-45,79,-64,-23,-11,-107,46,40, 
  /* [81][0][][] */ 75,54,-11,4,32,-22,76,103,-114,114,-80,-56,-35,21,119,127, 
  /* [82][0][][] */ 32,71,-7,-71,15,-22,127,-61,3,14,-80,51,103,-19,38,-29, 
  /* [83][0][][] */ 12,-36,33,53,-2,37,-49,-127,79,-47,123,25,44,-59,-50,-123, 
  /* [84][0][][] */ -125,-121,-10,-25,12,127,114,-2,98,82,72,91,68,89,-117,6, 
  /* [85][0][][] */ 127,-6,93,-68,86,17,27,73,-22,106,-71,-24,9,35,81,33, 
  /* [86][0][][] */ -77,81,-42,9,33,89,10,4,104,38,127,-37,-32,42,-16,-27, 
  /* [87][0][][] */ 10,-66,29,-49,50,-127,33,-29,47,-10,67,-36,39,-45,-38,77, 
  /* [88][0][][] */ -87,46,56,16,124,-20,30,12,-79,-79,92,-97,57,122,96,-127, 
  /* [89][0][][] */ -27,35,-15,36,-25,127,-13,40,-48,8,-40,30,-6,62,20,-86, 
  /* [90][0][][] */ 69,-75,30,32,127,-18,39,43,5,-99,-114,-34,-31,-13,-62,13, 
  /* [91][0][][] */ 3,31,-8,-19,30,-72,-86,42,-72,25,-127,-103,-92,-51,-26,4, 
  /* [92][0][][] */ 73,54,82,57,-127,-98,19,17,-35,27,-38,-57,-25,-71,14,-2, 
  /* [93][0][][] */ -16,-127,-103,41,-50,-57,-25,123,77,64,0,76,-48,55,13,-14, 
  /* [94][0][][] */ 101,7,127,-24,16,-27,32,42,26,65,-13,42,25,-1,105,-18, 
  /* [95][0][][] */ -75,-40,-29,-40,127,-13,59,95,-13,-25,-107,-48,5,18,-73,16, 
};
const TfArray<96, float> quant18_scale = { 96, { 0.0051497290842235088, 0.0024823814164847136, 0.0051731378771364689, 0.0026217624545097351, 0.002401439007371664, 0.0013995477929711342, 0.0049089142121374607, 0.0035937440115958452, 0.0014295799192041159, 0.0022142436355352402, 0.0010093350429087877, 0.002664460800588131, 0.0027715966571122408, 0.0099400132894515991, 0.0021026248577982187, 0.0028185208793729544, 0.0049810376949608326, 0.0026442618109285831, 0.0028020411264151335, 0.0012272008461877704, 0.0043440903536975384, 0.0014567641774192452, 0.0035190172493457794, 0.0023246584460139275, 0.0015633086441084743, 0.0022121863439679146, 0.0043810755014419556, 0.00347135029733181, 0.0032310832757502794, 0.0030180029571056366, 0.0027123682666569948, 0.0028813777025789022, 0.0045855892822146416, 0.0015464351745322347, 0.0028543896041810513, 0.0024058474227786064, 0.0018902049632743001, 0.0032164996955543756, 0.001534893992356956, 0.0028114919550716877, 0.0013355854898691177, 0.0038908864371478558, 0.0020758770406246185, 0.0020059226080775261, 0.0017844658577814698, 0.0016134781762957573, 0.0020096402149647474, 0.0026225708425045013, 0.0046121743507683277, 0.0038021281361579895, 0.0027146041393280029, 0.0016198615776374936, 0.0030608372762799263, 0.0027926214970648289, 0.0012561216717585921, 0.0049394066445529461, 0.0032942851539701223, 0.0018940736772492528, 0.003062813775613904, 0.0036677094176411629, 0.0024848233442753553, 0.0013295060489326715, 0.0032229474745690823, 0.0034708201419562101, 0.00092973728897050023, 0.0014083903515711427, 0.0047319475561380386, 0.0031353079248219728, 0.0023254174739122391, 0.0021040677092969418, 0.0037143046502023935, 0.0021622399799525738, 0.0018855541711673141, 0.0034885110799223185, 0.0043437904678285122, 0.0054359692148864269, 0.0034072326961904764, 0.0016899440670385957, 0.0029973741620779037, 0.0019659206736832857, 0.0037840369623154402, 0.0022867782972753048, 0.0034765962045639753, 0.00099265971221029758, 0.0030350142624229193, 0.0016518201446160674, 0.0025039918255060911, 0.0047127329744398594, 0.0041823680512607098, 0.0047675012610852718, 0.0019117947667837143, 0.0017916586948558688, 0.0036983615718781948, 0.0028264687862247229, 0.0022131768055260181, 0.0017834109021350741, } };
const TfLiteAffineQuantization quant18 = { (TfLiteFloatArray*)&quant18_scale, (TfLiteIntArray*)&g0::quant5_zero, 0 };
const MODEL_SECTION(EI_MODEL_SECTION) ALIGN(16) int32_t tensor_data19[16] = { -4150, 12418, -18459, 4215, 11529, -15772, -39953, -6731, -4178, 7591, -15587, -12169, 3909, -8252, -6425, -4142, };
const TfArray<16, float> quant19_scale = { 16, { 0.00017291662516072392, 0.00014487768930848688, 0.00012549792882055044, 0.00014815088070463389, 9.5705239800736308e-05, 0.00012304876872804016, 9.4837567303329706e-05, 0.00013429293176159263, 9.7275296866428107e-05, 7.480569911422208e-05, 0.00020274026610422879, 0.00013058436161372811, 0.00012308420264162123, 8.8326218246947974e-05, 0.00015116619761101902, 0.00010524653043830767, } };
const TfLiteAffineQuantization quant19 = { (TfLiteFloatArray*)&quant19_scale, (TfLiteIntArray*)&g0::quant7_zero, 0 };
const MODEL_SECTION(EI_MODEL_SECTION) ALIGN(16) int8_t tensor_data20[16*1*1*48] = { 
  /* [0][0][][] */ 16,28,23,-23,63,57,-29,48,-15,105,7,49,-27,18,-10,52,34,75,32,-66,-55,68,-14,53,46,44,27,45,-51,-42,-3,76,-25,5,-57,40,55,-127,-31,8,14,-22,58,0,-1,-48,-64,-23, 
  /* [1][0][][] */ -49,4,-79,-47,7,95,-62,19,-9,-42,-48,32,63,-23,-24,-20,-26,-35,-11,19,-72,47,-103,-43,-54,-48,55,71,-21,-36,38,-43,13,-46,-35,53,18,-68,127,-44,-25,32,-55,-22,25,50,33,24, 
  /* [2][0][][] */ 0,-3,59,-31,-20,-82,23,16,105,75,-62,9,110,-37,127,81,-71,-16,-30,20,84,-85,-35,-106,8,-33,31,-75,43,42,-47,19,27,-34,50,39,-77,19,6,-39,36,32,58,-15,24,-72,91,-66, 
  /* [3][0][][] */ 44,1,-27,-33,34,107,18,-16,50,-44,17,-34,-56,12,19,49,-51,-77,37,-127,-7,-7,-27,-26,-46,88,124,61,-17,-42,20,44,59,-40,83,33,-53,-60,-4,36,23,11,-15,10,31,24,-11,-29, 
  /* [4][0][][] */ 87,-16,8,-29,90,71,62,11,64,-5,-100,31,28,-9,2,-3,-94,-121,-13,-96,-2,18,-38,-16,-78,127,-103,108,-50,-46,32,82,26,-45,35,-28,-28,7,-17,33,-42,-16,-8,38,-49,91,-41,-64, 
  /* [5][0][][] */ 3,-4,-55,5,-15,54,19,-26,65,53,37,88,52,-18,33,-1,-45,127,-16,38,10,-3,-68,-12,34,1,-65,-35,-10,34,15,-14,-37,-13,40,15,-48,10,-84,1,85,-23,26,51,-8,12,-38,32, 
  /* [6][0][][] */ 56,8,9,81,2,-38,116,-57,0,71,120,98,36,56,-46,73,27,-59,-70,85,63,-68,-52,66,-90,94,82,-23,120,60,-28,2,93,-82,-112,-13,96,32,0,1,21,59,53,-28,69,127,27,-14, 
  /* [7][0][][] */ -89,-15,-22,32,-60,-74,30,45,79,123,-64,-69,-109,25,-27,-17,-90,90,2,127,-59,48,10,36,-13,-88,-40,-92,32,53,-3,0,-25,15,3,-17,1,-53,122,9,7,42,16,-14,53,69,-38,-6, 
  /* [8][0][][] */ -8,-74,46,-62,53,-53,60,-26,-23,-100,23,4,-29,-2,28,25,-5,0,-47,96,-3,30,-14,22,57,-16,-52,-33,-127,-25,-48,-105,11,-63,-1,81,1,21,94,14,12,6,79,104,-2,-64,-34,68, 
  /* [9][0][][] */ 23,-38,33,-62,48,71,-38,43,25,-40,-44,-23,14,-52,102,-7,10,-113,34,44,-71,47,62,-24,-18,-70,-21,70,55,67,-50,-28,-46,36,-8,127,-22,-48,-54,-12,-27,3,34,105,49,70,-64,19, 
  /* [10][0][][] */ -5,23,-25,-13,9,31,-71,-41,50,39,64,-4,-33,-19,54,-42,-53,127,-13,51,0,-8,23,24,-43,40,11,87,30,2,-36,-15,75,9,-14,32,-3,-54,-41,14,-81,-4,29,-16,11,37,39,33, 
  /* [11][0][][] */ -28,51,-27,40,29,62,-8,9,32,10,-127,-86,70,28,-21,-57,3,28,-41,-46,-10,-15,123,14,42,6,-16,39,-6,25,0,47,30,-7,-48,-1,37,86,106,20,31,-27,70,1,-53,-26,91,4, 
  /* [12][0][][] */ -63,8,30,20,-62,-55,-1,17,-36,-36,-126,8,89,-102,23,31,46,107,88,-127,-22,43,-40,-77,0,-27,37,-37,17,21,-14,84,70,69,46,-31,-52,-23,29,-4,-38,30,71,12,52,-8,-26,-35, 
  /* [13][0][][] */ -48,-112,-37,-99,16,21,57,1,-114,23,106,-54,43,37,127,19,105,18,-13,-96,69,-71,115,-11,-73,6,-23,11,-47,-100,-111,15,46,-19,-76,59,32,-62,70,-66,-2,40,61,49,46,-31,97,-62, 
  /* [14][0][][] */ 69,11,-49,8,-37,9,-82,-33,-29,52,65,51,-8,-68,16,-45,61,-97,15,4,92,-50,19,-1,-1,127,-85,-7,-41,-21,-84,2,125,35,88,-19,-72,25,-23,73,-12,-36,104,-14,-50,-45,-53,58, 
  /* [15][0][][] */ -70,14,47,21,103,-4,3,37,10,94,-15,67,56,-14,-39,-21,6,38,-5,-37,32,-39,-64,-59,61,-62,-42,68,-36,15,20,6,-68,-4,127,-4,-89,23,64,-17,-55,-24,23,0,-30,-33,-8,9, 
};
const TfArray<4, int> tensor_dimension20 = { 4, { 16,1,1,48 } };
const TfArray<16, float> quant20_scale = { 16, { 0.0073489565402269363, 0.0061573018319904804, 0.0053336620330810547, 0.0062964120879769325, 0.0040674726478755474, 0.0052295727655291557, 0.0040305964648723602, 0.0057074497453868389, 0.0041342000477015972, 0.0031792421359568834, 0.008616461418569088, 0.0055498350411653519, 0.005231078714132309, 0.0037538642063736916, 0.0064245634712278843, 0.0044729774817824364, } };
const TfLiteAffineQuantization quant20 = { (TfLiteFloatArray*)&quant20_scale, (TfLiteIntArray*)&g0::quant7_zero, 0 };
const MODEL_SECTION(EI_MODEL_SECTION) ALIGN(16) int32_t tensor_data21[48] = { 11560, -346, 22736, 243, 14240, -1044, 38483, 540, 9771, 36751, 3537, 29345, 682, 12162, 40821, 21757, 918, 3287, 5511, 54393, -862, 20541, -1860, 15612, 14873, 34042, -1438, -1147, -1269, 15957, 20733, -921, -1204, -3726, -608, 14811, 8702, 28763, 4042, 16514, 23837, 2463, 947, 16136, 238, 812, 45916, 35617, };
const TfArray<1, int> tensor_dimension21 = { 1, { 48 } };
const TfArray<48, float> quant21_scale = { 48, { 7.1930320700630546e-05, 0.00010652244236553088, 5.3540963563136756e-05, 0.00011149966303491965, 0.00010520594514673576, 0.00010136682976735756, 5.0892696890514344e-05, 0.0003336500667501241, 9.320119715994224e-05, 6.0682585171889514e-05, 5.1229322707513347e-05, 8.508636528858915e-05, 7.3605799116194248e-05, 0.00012107040674891323, 4.2188836232526228e-05, 8.6956810264382511e-05, 7.586878928123042e-05, 5.6771037634462118e-05, 0.00012301650713197887, 3.9904596633277833e-05, 6.6380765929352492e-05, 5.6691013014642522e-05, 9.8208831332158297e-05, 0.00010711573850130662, 6.6631182562559843e-05, 7.6031588832847774e-05, 5.5555574363097548e-05, 4.5598728320328519e-05, 0.00024191509874071926, 9.2218586360104382e-05, 6.1050894146319479e-05, 0.00018418276158627123, 0.00011209608055651188, 0.00016300534480251372, 7.1153815952129662e-05, 6.5621818066574633e-05, 0.00010809197556227446, 6.6911903559230268e-05, 7.9401761468034238e-05, 9.2143105575814843e-05, 6.5353233367204666e-05, 0.00013608208973892033, 0.00019304925808683038, 6.2844192143529654e-05, 0.0001557525247335434, 5.7826724514598027e-05, 4.001400520792231e-05, 4.2050945921801031e-05, } };
const TfArray<48, int> quant21_zero = { 48, { 0,0,0,0,0,0,0,0,0,0,0,0,0,0,0,0,0,0,0,0,0,0,0,0,0,0,0,0,0,0,0,0,0,0,0,0,0,0,0,0,0,0,0,0,0,0,0,0 } };
const TfLiteAffineQuantization quant21 = { (TfLiteFloatArray*)&quant21_scale, (TfLiteIntArray*)&quant21_zero, 0 };
const MODEL_SECTION(EI_MODEL_SECTION) ALIGN(16) int8_t tensor_data22[1*3*3*48] = { 
  /* [0][0][][] */ -96,41,-126,111,-75,79,-46,105,-71,-87,76,-72,67,-73,-85,-37,78,83,80,-90,97,-123,102,-79,-31,-62,100,123,-98,-104,-93,41,82,-83,84,-116,-82,-127,76,-50,-14,-125,113,-117,95,70,-81,-71, -122,68,-79,127,-83,127,-33,127,-95,-100,107,-107,92,-78,-115,-63,105,103,127,-127,127,-120,116,-123,-94,-98,84,127,43,-125,-107,115,94,-127,102,-105,-87,-115,94,-74,-74,95,104,-127,-43,100,-75,-105, -47,58,-13,8,-18,62,-13,46,-38,-55,73,-62,34,-71,-34,-1,60,41,68,-20,65,-69,66,-35,-86,-25,32,52,91,-77,-23,37,43,-64,34,-20,-20,-45,35,-49,-74,-37,24,-49,-68,56,-1,-127, 
  /* [0][1][][] */ -98,98,-73,105,-74,96,-127,35,-116,-114,85,-92,86,-115,-96,-87,93,94,-47,-103,99,-127,110,-75,-49,-93,124,109,-127,-77,-113,83,110,47,104,-127,-86,-101,103,-84,-113,-127,127,-106,127,84,-127,-89, -127,127,-127,110,-127,118,-121,81,-127,-127,127,-127,127,-127,-127,-127,127,127,-55,-127,125,-114,127,-127,-125,-127,127,110,12,-127,-127,120,127,57,127,-108,-127,-85,127,-127,-111,115,111,-105,-60,127,-119,-97, -65,95,-104,13,-46,48,-59,48,-61,-52,87,-78,42,-69,-23,-22,78,60,-37,-30,63,-67,74,-55,-127,-44,46,61,87,-73,-39,127,48,40,50,-35,-22,-12,48,-51,-46,-62,37,-73,-83,73,-22,-114, 
